%YAML:1.0
---
opencv_ml_svm:
   format: 3
   svmType: C_SVC
   kernel:
      type: RBF
      gamma: 5.0000000000000000e-01
   C: 16.
   term_criteria: { iterations:100 }
   var_count: 36
   class_count: 30
   class_labels: !!opencv-matrix
      rows: 30
      cols: 1
      dt: i
      data: [ 48, 49, 50, 51, 52, 53, 54, 55, 56, 57, 65, 66, 67, 68, 69,
          70, 71, 72, 75, 76, 77, 78, 80, 83, 84, 85, 86, 88, 89, 90 ]
   sv_total: 391
   support_vectors:
      - [ 2.74683684e-01, 2.63663441e-01, 1.09761599e-02, 7.70010874e-02,
          1.14616290e-01, 1.73241142e-02, 4.49914597e-02, 1.41739948e-02,
          1.16324566e-01, 2.09120914e-01, 2.40755901e-02, 2.35424768e-02,
          3.03288363e-02, 1.39579758e-01, 4.69436795e-02, 2.88093388e-01,
          2.17472941e-01, 2.51570165e-01, 1.34131879e-01, 4.62721325e-02,
          5.04445471e-02, 2.88093388e-01, 2.88093388e-01, 1.40831023e-01,
          5.43439426e-02, 3.30723226e-02, 1.19343132e-01, 1.91381827e-01,
          5.78988194e-02, 5.99940680e-02, 0., 2.88093388e-01,
          2.81662017e-01, 2.88093388e-01, 1.08265229e-01, 1.68618187e-01 ]
      - [ 2.40857467e-01, 1.56768918e-01, 2.78206289e-01, 3.36133391e-02,
          1.74018610e-02, 0., 1.53065082e-02, 5.10216923e-03,
          2.02863559e-01, 2.27608576e-01, 6.84332754e-03, 2.51480639e-02,
          3.23972479e-02, 3.57509628e-02, 1.08405851e-01, 2.78206289e-01,
          2.44624123e-01, 2.78206289e-01, 1.79696437e-02, 7.21191317e-02,
          2.76859671e-01, 2.78206289e-01, 2.78206289e-01, 5.01452200e-02,
          7.05674812e-02, 4.42655757e-02, 3.18592377e-02, 6.12335354e-02,
          7.59066418e-02, 1.11885898e-01, 3.94456051e-02, 2.78206289e-01,
          2.78206289e-01, 2.78206289e-01, 8.85688141e-02, 4.59862798e-02 ]
      - [ 2.67239213e-01, 1.17398188e-01, 1.04714945e-01, 2.02165581e-02,
          2.29037330e-02, 0., 5.38769271e-03, 5.04476652e-02,
          2.46336773e-01, 3.07971895e-01, 2.89710015e-02, 5.28576411e-02,
          0., 4.70541902e-02, 1.12073213e-01, 1.87779963e-01,
          1.70773894e-01, 3.41686904e-01, 2.36510299e-02, 2.46484783e-02,
          1.10276170e-01, 2.54871100e-01, 3.41686904e-01, 0.,
          3.52906436e-02, 4.22008485e-02, 4.19320315e-02, 8.05934742e-02,
          7.17899576e-02, 5.55125475e-02, 0., 3.41686904e-01,
          3.41686904e-01, 2.93301463e-01, 7.32410252e-02, 4.85894568e-02 ]
      - [ 3.10617775e-01, 1.30815700e-01, 1.07340142e-02, 7.53023624e-02,
          1.33705780e-01, 1.69419255e-02, 2.04035435e-02, 1.14701077e-01,
          2.97337890e-01, 3.19248348e-01, 1.93744227e-02, 6.23511411e-02,
          2.96597518e-02, 1.43918321e-01, 9.92457941e-02, 1.36529133e-01,
          1.66280210e-01, 3.19248348e-01, 9.65906605e-02, 4.52513210e-02,
          3.20787169e-02, 2.25041926e-01, 3.19248348e-01, 0.,
          2.56707892e-02, 3.57331485e-02, 8.57345834e-02, 1.83554247e-01,
          4.99358587e-02, 3.86135727e-02, 0., 3.19248348e-01,
          2.63638765e-01, 2.17483282e-01, 9.13391486e-02, 1.80134892e-01 ]
      - [ 2.96719223e-01, 3.22158821e-02, 2.46553198e-02, 1.14604272e-02,
          1.91046789e-01, 1.38072604e-02, 5.02235116e-03, 1.01806421e-03,
          2.96719223e-01, 2.96719223e-01, 1.13485176e-02, 3.74911614e-02,
          2.41719801e-02, 2.46633306e-01, 1.00946382e-01, 1.43894237e-02,
          4.29649614e-02, 2.96719223e-01, 2.27113262e-01, 2.93463357e-02,
          4.54895720e-02, 4.58416939e-02, 2.96719223e-01, 0.,
          1.14827650e-02, 2.10819840e-02, 2.27649659e-01, 2.76423961e-01,
          3.52340415e-02, 1.50816888e-02, 0., 2.96719223e-01,
          2.95113027e-01, 6.28994778e-02, 3.55874747e-02, 2.75484920e-01 ]
      - [ 2.64503926e-01, 1.29440427e-01, 6.72473982e-02, 1.69426352e-02,
          1.64661393e-01, 2.04121005e-02, 2.67878417e-02, 7.95939844e-03,
          1.99740291e-01, 2.31985673e-01, 8.53103586e-03, 3.06869540e-02,
          3.57348882e-02, 1.73396766e-01, 1.49235070e-01, 1.46401793e-01,
          2.75940329e-01, 3.69081557e-01, 2.55347993e-02, 3.00449487e-02,
          7.12548867e-02, 6.77705184e-02, 3.69081557e-01, 6.66377619e-02,
          3.90744768e-02, 3.53667289e-02, 3.51414494e-02, 1.14667214e-01,
          8.85795355e-02, 1.31769001e-01, 0., 3.69081557e-01,
          3.69081557e-01, 8.85535777e-02, 6.77878633e-02, 1.23282127e-01 ]
      - [ 3.05083603e-01, 1.56579882e-01, 5.95171861e-02, 0.,
          1.30287483e-01, 1.09943934e-01, 4.60431278e-02, 1.01237157e-02,
          3.05083603e-01, 3.05083603e-01, 2.23403066e-01, 2.42969170e-02,
          0., 1.75140411e-01, 1.76870540e-01, 1.06691092e-01,
          2.71596834e-02, 2.81933159e-01, 8.16418678e-02, 3.08340937e-02,
          6.04766235e-02, 0., 3.05083603e-01, 6.20658658e-02,
          3.31441090e-02, 8.09897203e-03, 7.52302036e-02, 1.91331148e-01,
          2.36998156e-01, 0., 0., 3.05083603e-01, 3.05083603e-01,
          2.37282008e-01, 4.07395251e-02, 4.89874743e-02 ]
      - [ 2.80548215e-01, 1.29714414e-01, 1.36201140e-02, 7.40812421e-02,
          1.51136890e-01, 1.66671909e-02, 4.02866304e-02, 1.26369325e-02,
          2.80548215e-01, 2.80548215e-01, 8.09223577e-03, 2.84360107e-02,
          2.91787814e-02, 1.74561217e-01, 9.76363942e-02, 1.33298293e-01,
          1.95629910e-01, 2.80548215e-01, 1.04025811e-01, 5.53447641e-02,
          1.01270273e-01, 2.80548215e-01, 2.77469933e-01, 2.33341008e-01,
          5.85161522e-02, 8.41816794e-03, 7.72881135e-02, 1.98314995e-01,
          6.67051077e-02, 9.57886800e-02, 3.55269276e-02, 2.80548215e-01,
          2.80548215e-01, 1.89054072e-01, 7.83874765e-02, 1.99813828e-01 ]
      - [ 3.42663974e-01, 7.32075870e-02, 1.06484473e-01, 2.05581896e-02,
          2.32907739e-02, 0., 5.47873741e-03, 1.95061136e-02,
          3.30045342e-01, 3.64073485e-01, 1.79169532e-02, 5.37508614e-02,
          0., 9.20741931e-02, 0., 4.06665541e-02, 1.35555193e-02,
          3.64073485e-01, 2.40506977e-02, 2.50650011e-02, 1.12139679e-01,
          2.59178042e-01, 3.64073485e-01, 0., 3.58870067e-02,
          4.29139845e-02, 4.26406264e-02, 3.25448401e-02, 7.30031133e-02,
          5.64506315e-02, 0., 3.64073485e-01, 2.63971448e-01,
          2.00294048e-01, 5.42220622e-02, 0. ]
      - [ 3.42663974e-01, 7.32075870e-02, 1.06484473e-01, 2.05581896e-02,
          2.32907739e-02, 0., 5.47873741e-03, 1.95061136e-02,
          3.30045342e-01, 3.64073485e-01, 1.79169532e-02, 5.37508614e-02,
          0., 9.20741931e-02, 0., 4.06665541e-02, 1.35555193e-02,
          3.64073485e-01, 2.40506977e-02, 2.50650011e-02, 1.12139679e-01,
          2.59178042e-01, 3.64073485e-01, 0., 3.58870067e-02,
          4.29139845e-02, 4.26406264e-02, 3.25448401e-02, 7.30031133e-02,
          5.64506315e-02, 0., 3.64073485e-01, 2.63971448e-01,
          2.00294048e-01, 5.42220622e-02, 0. ]
      - [ 3.08741301e-01, 3.08741301e-01, 1.27413357e-02, 8.93843323e-02,
          9.53077376e-02, 2.47279722e-02, 3.63134630e-02, 4.29910608e-02,
          1.22581646e-01, 1.16617747e-01, 4.43545356e-02, 6.35729954e-02,
          4.32905592e-02, 1.37140319e-01, 1.13782726e-01, 5.68199567e-02,
          3.08741301e-01, 3.08741301e-01, 9.98806357e-02, 6.60475791e-02,
          9.03538838e-02, 3.08741301e-01, 3.08741301e-01, 0.,
          4.89148609e-02, 4.72065397e-02, 7.87715986e-02, 8.18228200e-02,
          5.40985726e-02, 7.51341274e-03, 5.27088679e-02, 3.08741301e-01,
          3.08741301e-01, 2.37103790e-01, 1.63233697e-01, 1.14856988e-01 ]
      - [ 2.91122794e-01, 1.46453172e-01, 2.67121997e-02, 4.75910492e-02,
          2.56338920e-02, 1.81068294e-02, 3.93603481e-02, 1.22597683e-02,
          2.91122794e-01, 2.91122794e-01, 2.07065828e-02, 6.66383207e-02,
          3.16991135e-02, 5.26631288e-02, 4.90646288e-02, 2.91122794e-01,
          2.10892558e-01, 2.91122794e-01, 7.93553963e-02, 8.68729576e-02,
          1.49501607e-01, 2.38316521e-01, 2.91122794e-01, 4.90646288e-02,
          3.44298035e-02, 9.14529152e-03, 5.03082089e-02, 9.96980146e-02,
          7.42709264e-02, 1.03973225e-01, 0., 2.91122794e-01,
          2.91122794e-01, 2.91122794e-01, 1.32911578e-01, 9.24528986e-02 ]
      - [ 2.67376304e-01, 7.58517608e-02, 1.23565353e-01, 1.88958552e-02,
          3.97892073e-02, 0., 5.03572682e-03, 9.02289152e-02,
          2.99202263e-01, 2.10753545e-01, 2.14978736e-02, 7.01747164e-02,
          3.98545600e-02, 1.75867766e-01, 3.30804661e-02, 4.81429510e-02,
          3.26305956e-01, 3.26305956e-01, 2.76347958e-02, 2.30382476e-02,
          1.13666058e-01, 3.12540948e-01, 3.26305956e-01, 0.,
          5.27808368e-02, 4.60425168e-02, 4.47215438e-02, 9.15250331e-02,
          6.71000853e-02, 5.18860370e-02, 0., 3.26305956e-01,
          3.26305956e-01, 1.42517477e-01, 1.30130172e-01, 1.21937275e-01 ]
      - [ 3.05288017e-01, 2.27186680e-01, 1.30739227e-01, 6.95844069e-02,
          3.74801382e-02, 2.64745764e-02, 1.43051920e-02, 3.51045607e-03,
          1.93025917e-01, 2.78096199e-01, 6.37278706e-03, 2.57251002e-02,
          4.63482924e-02, 7.70004541e-02, 3.84704545e-02, 1.41714975e-01,
          2.66825825e-01, 3.07610780e-01, 5.19610085e-02, 1.10661678e-01,
          2.50522643e-01, 3.07610780e-01, 3.07610780e-01, 0.,
          3.83596495e-02, 4.58707958e-02, 4.55786027e-02, 8.76021907e-02,
          6.71957135e-02, 2.78280154e-02, 0., 3.07610780e-01,
          3.07610780e-01, 1.84531152e-01, 6.23933598e-02, 6.57890961e-02 ]
      - [ 2.69784003e-01, 1.01720788e-01, 1.41667530e-01, 1.20615475e-01,
          1.39406860e-01, 0., 3.26566631e-03, 2.39333063e-02,
          2.52439231e-01, 2.69784003e-01, 5.29269017e-02, 3.68870832e-02,
          1.58944443e-01, 1.90990075e-01, 8.64832923e-02, 1.03841230e-01,
          2.11735025e-01, 2.69784003e-01, 1.30952448e-01, 4.08298969e-02,
          1.25386283e-01, 2.69784003e-01, 2.69784003e-01, 0., 0.,
          9.89367217e-02, 1.81331396e-01, 2.64701307e-01, 1.64802894e-01,
          1.61607675e-02, 1.13372676e-01, 2.69784003e-01, 2.29736194e-01,
          1.37521148e-01, 8.02320838e-02, 1.92931205e-01 ]
      - [ 3.17175120e-01, 6.05522841e-02, 8.70005861e-02, 1.03813924e-01,
          6.28692731e-02, 0., 5.16652642e-03, 1.83945391e-02,
          3.11237425e-01, 2.99998373e-01, 8.63721408e-03, 3.17402929e-02,
          4.08897512e-02, 8.27689767e-02, 0., 1.06250338e-01,
          2.94628531e-01, 3.17175120e-01, 2.26801466e-02, 1.97215639e-02,
          1.58841386e-01, 3.17175120e-01, 3.17175120e-01, 0.,
          8.00440982e-02, 5.58692068e-02, 4.02107127e-02, 7.32718930e-02,
          6.85223565e-02, 7.74121135e-02, 1.76365912e-01, 3.17175120e-01,
          2.48928800e-01, 1.43446743e-01, 5.50451577e-02, 5.40277772e-02 ]
      - [ 2.69873112e-01, 3.05246204e-01, 1.71298623e-01, 4.17417400e-02,
          5.83305545e-02, 2.29806509e-02, 3.37474942e-02, 1.01572359e-02,
          1.10072695e-01, 1.75823763e-01, 2.34383754e-02, 5.73483016e-03,
          4.02315706e-02, 6.68384805e-02, 1.68014020e-01, 1.42673269e-01,
          3.03279549e-01, 3.05246204e-01, 2.32188553e-02, 7.54041225e-02,
          2.31030211e-01, 3.05246204e-01, 2.64351219e-01, 6.22713715e-02,
          8.87648575e-03, 1.45115659e-01, 9.62996930e-02, 1.29096329e-01,
          7.68034980e-02, 8.65653679e-02, 4.89843674e-02, 2.73207635e-01,
          3.05246204e-01, 1.70115069e-01, 7.63179213e-02, 1.38795286e-01 ]
      - [ 2.06422150e-01, 8.86216313e-02, 8.96005556e-02, 1.72985345e-02,
          7.12259710e-02, 0., 1.21168010e-02, 8.51038545e-02,
          2.19328299e-01, 2.85564184e-01, 1.15793504e-01, 2.83215605e-02,
          3.64855342e-02, 1.53700218e-01, 1.22085854e-01, 1.00193851e-01,
          2.55939305e-01, 2.85564184e-01, 6.68220297e-02, 3.71971279e-02,
          1.60119116e-01, 2.85564184e-01, 2.85564184e-01, 2.34166592e-01,
          6.35761768e-02, 3.61096486e-02, 8.24643895e-02, 2.06806347e-01,
          2.22944573e-01, 4.80676666e-02, 1.83529854e-01, 2.85564184e-01,
          2.85564184e-01, 1.53122813e-01, 2.92380452e-02, 8.75024199e-02 ]
      - [ 3.14331234e-01, 5.89021929e-02, 8.46297517e-02, 1.00984916e-01,
          6.11560382e-02, 0., 5.02573466e-03, 1.78932734e-02,
          3.02755952e-01, 2.91823208e-01, 8.40184372e-03, 3.08753457e-02,
          3.97754759e-02, 8.05134550e-02, 0., 1.03354938e-01,
          2.86599696e-01, 3.21321934e-01, 2.20620967e-02, 1.91841349e-02,
          1.54512852e-01, 3.21321934e-01, 3.21321934e-01, 0.,
          8.64329189e-02, 5.72034232e-02, 3.91149372e-02, 7.12751746e-02,
          7.26803243e-02, 9.33783203e-02, 1.71559811e-01, 3.21321934e-01,
          2.42145300e-01, 1.73818037e-01, 6.49719089e-02, 5.25554791e-02 ]
      - [ 2.79533207e-01, 2.79533207e-01, 2.25785717e-01, 0.,
          2.78660282e-02, 1.96835268e-02, 4.27877493e-02, 1.33273192e-02,
          1.52933136e-01, 2.53517151e-01, 2.73544993e-02, 2.67487857e-02,
          3.44593897e-02, 5.72489016e-02, 5.33370525e-02, 2.79533207e-01,
          2.37957194e-01, 2.79533207e-01, 3.11710555e-02, 1.35201588e-01,
          2.79533207e-01, 1.40621066e-01, 2.79533207e-01, 5.33370525e-02,
          3.61228772e-02, 3.41043808e-02, 3.38871367e-02, 1.07192285e-01,
          7.26808012e-02, 8.88545811e-02, 0., 2.79533207e-01,
          2.79533207e-01, 2.79533207e-01, 9.99022797e-02, 8.13284144e-02 ]
      - [ 3.06444615e-01, 1.16946734e-01, 9.59600322e-03, 6.73188716e-02,
          2.21317992e-01, 1.51457572e-02, 2.22418122e-02, 6.69428566e-03,
          2.56311864e-01, 3.00415635e-01, 1.17195025e-02, 3.89381349e-02,
          2.65152492e-02, 2.88322955e-01, 8.87238383e-02, 1.26471575e-02,
          1.88741162e-01, 3.06444615e-01, 1.49174497e-01, 4.64458354e-02,
          4.66538258e-02, 2.01183155e-01, 3.06444615e-01, 0.,
          6.88290689e-03, 2.12213658e-02, 1.36245310e-01, 2.44242460e-01,
          1.58212528e-01, 4.49401606e-03, 0., 3.06444615e-01,
          2.35688031e-01, 3.35961990e-02, 6.68227971e-02, 1.90252572e-01 ]
      - [ 3.23813587e-01, 2.54840165e-01, 1.11968210e-02, 7.85490870e-02,
          2.20712125e-01, 1.76723916e-02, 2.59522200e-02, 7.81103503e-03,
          1.85235724e-01, 2.09233314e-01, 1.20292641e-01, 4.41015232e-03,
          3.09385546e-02, 1.83147192e-01, 1.29204765e-01, 6.50979131e-02,
          1.63360044e-01, 2.25754634e-01, 1.93248302e-01, 4.72023673e-02,
          3.34618166e-02, 2.34744787e-01, 3.23813587e-01, 0.,
          3.49580869e-02, 3.37371975e-02, 1.78162277e-01, 2.14170292e-01,
          5.90627976e-02, 6.12001605e-02, 0., 3.23813587e-01,
          3.23813587e-01, 8.49632099e-02, 2.47929189e-02, 1.99609563e-01 ]
      - [ 2.63735831e-01, 1.28561124e-01, 3.74851301e-02, 7.77691156e-02,
          1.07151836e-01, 1.74969099e-02, 1.48340920e-02, 4.11333097e-03,
          1.91805899e-01, 2.24734858e-01, 6.47031190e-03, 2.37772949e-02,
          3.06313410e-02, 1.31545842e-01, 4.74119112e-02, 3.21962237e-01,
          2.25061625e-01, 2.78325647e-01, 1.44614816e-01, 1.40213212e-02,
          5.07292077e-02, 2.32413828e-01, 3.21962237e-01, 0.,
          3.46109644e-02, 3.34021933e-02, 1.52849466e-01, 2.43713513e-01,
          1.81042105e-01, 0., 0., 3.21962237e-01, 1.89647585e-01,
          2.93446124e-01, 8.88042599e-02, 1.34977654e-01 ]
      - [ 3.04325074e-01, 3.53701673e-02, 2.63743456e-02, 2.68699285e-02,
          3.04325074e-01, 1.49416914e-02, 1.08169038e-02, 2.89567932e-03,
          3.00562441e-01, 2.88227409e-01, 5.52539947e-03, 2.03049034e-02,
          2.61579957e-02, 3.04325074e-01, 1.34760603e-01, 7.85658658e-02,
          1.59488589e-01, 3.04325074e-01, 1.59124687e-01, 1.19736725e-02,
          2.07747202e-02, 4.03048955e-02, 3.04325074e-01, 0., 0.,
          1.86720490e-02, 1.66156754e-01, 2.43518993e-01, 1.54603049e-01,
          0., 0., 3.04325074e-01, 2.02140912e-01, 5.51258437e-02,
          4.36963178e-02, 1.71639562e-01 ]
      - [ 0., 5.50627522e-02, 1.90866694e-01, 1.80142105e-01,
          3.45061928e-01, 0., 0., 0., 0., 0., 0., 5.41032739e-02,
          3.45061928e-01, 3.45061928e-01, 0., 0., 0., 0., 2.14608610e-01,
          3.05265770e-03, 1.84192136e-02, 6.49704039e-02, 3.45061928e-01,
          0., 0., 1.38852552e-01, 2.98005104e-01, 2.20061883e-01, 0.,
          3.60688455e-02, 2.53033847e-01, 3.45061928e-01, 0., 0.,
          1.88873913e-02, 2.31405854e-01 ]
      - [ 1.06081881e-01, 8.31181109e-02, 1.29138678e-01, 1.99835524e-01,
          2.75386751e-01, 1.25364304e-01, 2.13961806e-02, 9.01471172e-03,
          8.10197294e-02, 1.05974875e-01, 1.34725356e-02, 2.57924199e-02,
          2.71825846e-02, 2.75386751e-01, 2.50525117e-01, 3.57111506e-02,
          6.21906035e-02, 1.39623523e-01, 2.75386751e-01, 1.81392163e-01,
          2.55298704e-01, 4.99588773e-02, 1.71525285e-01, 2.73559149e-02,
          8.24180543e-02, 1.54547349e-01, 2.75386751e-01, 2.75386751e-01,
          1.05661660e-01, 2.43953884e-01, 6.79564569e-03, 1.69555888e-01,
          6.26312718e-02, 6.12735189e-02, 2.75386751e-01, 2.75386751e-01 ]
      - [ 0., 9.27729830e-02, 2.99450368e-01, 1.48243129e-01,
          3.33915710e-01, 2.45460838e-01, 3.49892639e-02, 0., 0.,
          1.25235692e-02, 2.13627852e-02, 6.40883520e-02, 0.,
          3.33915710e-01, 2.49417737e-01, 3.55533063e-02, 0.,
          1.25235692e-02, 1.83421463e-01, 1.73720401e-02, 6.40193075e-02,
          8.35044608e-02, 3.33915710e-01, 1.63640544e-01, 2.33261753e-02,
          0., 1.83421463e-01, 2.37476900e-01, 1.25732854e-01,
          2.26332948e-01, 0., 3.33915710e-01, 1.66278496e-01,
          2.37022005e-02, 0., 2.07273066e-01 ]
      - [ 0., 6.02187626e-02, 1.93671092e-01, 9.13026482e-02,
          3.41941684e-01, 0., 0., 0., 0., 4.21344256e-03, 0., 0., 0.,
          3.41941684e-01, 0., 0., 0., 4.21344256e-03, 3.41941684e-01,
          3.36014442e-02, 4.66652289e-02, 6.08684309e-02, 3.41941684e-01,
          0., 0., 0., 3.41941684e-01, 3.41941684e-01, 6.83564022e-02, 0.,
          0., 3.41941684e-01, 0., 0., 0., 3.41941684e-01 ]
      - [ 9.89700630e-02, 2.56559253e-01, 2.82186151e-01, 4.80925962e-02,
          3.91693741e-01, 1.25194192e-01, 4.69863974e-02, 9.71352216e-03,
          0., 0., 9.24036838e-03, 2.77211051e-02, 0., 3.91693741e-01,
          2.58043557e-02, 3.67828738e-03, 0., 0., 1.88827038e-01,
          6.07797429e-02, 1.15095787e-01, 0., 3.91693741e-01,
          1.54826164e-01, 2.20697261e-02, 0., 1.75364643e-01,
          2.19072923e-01, 0., 0., 0., 3.91693741e-01, 3.87065373e-02,
          5.51743107e-03, 0., 2.19072923e-01 ]
      - [ 5.10138497e-02, 1.67320594e-01, 2.66452134e-01, 1.35396317e-01,
          4.40612137e-01, 0., 1.50555670e-02, 5.01852203e-03, 0., 0.,
          3.27671389e-03, 9.83014237e-03, 0., 4.40612137e-01, 0., 0., 0.,
          0., 1.66670233e-01, 1.87783185e-02, 6.92017153e-02,
          9.02642086e-02, 4.40612137e-01, 0., 2.81172562e-02,
          9.37241875e-03, 1.66670233e-01, 1.12161107e-01, 6.58934051e-03,
          1.97680220e-02, 0., 4.40612137e-01, 0., 5.56078702e-02,
          1.85359549e-02, 1.12161107e-01 ]
      - [ 0., 5.14261648e-02, 2.13326126e-01, 3.26070666e-01,
          3.26070666e-01, 0., 0., 0., 0., 0., 0., 4.15027849e-02,
          2.91154593e-01, 3.26070666e-01, 0., 0., 0., 0., 1.67632237e-01,
          2.85104685e-03, 4.44127843e-02, 2.51566231e-01, 3.26070666e-01,
          0., 0., 2.70168986e-02, 1.83858916e-01, 2.15510517e-01, 0.,
          5.80788292e-02, 3.26070666e-01, 3.26070666e-01, 0., 0., 0.,
          2.15510517e-01 ]
      - [ 0., 7.89381638e-02, 2.76589602e-01, 2.79034615e-01,
          2.05178425e-01, 1.35671183e-01, 1.93392783e-02, 0., 0.,
          4.42392519e-03, 5.77697437e-03, 2.02753954e-02, 2.06563752e-02,
          2.88591146e-01, 1.37858257e-01, 1.96510330e-02, 0.,
          4.42392519e-03, 2.88591146e-01, 1.08794145e-01, 1.46459803e-01,
          2.12983742e-01, 2.88591146e-01, 2.03506768e-01, 2.90089156e-02,
          5.77829853e-02, 2.88591146e-01, 2.43845269e-01, 6.26467243e-02,
          7.68937543e-02, 3.09845638e-02, 2.88591146e-01, 2.06787392e-01,
          2.94765513e-02, 1.32293954e-01, 2.88591146e-01 ]
      - [ 0., 9.54435915e-02, 3.04699540e-01, 1.28862396e-01,
          3.57308894e-01, 3.00423205e-01, 4.28238921e-02, 0., 0., 0., 0.,
          0., 0., 3.57308894e-01, 1.36202082e-01, 1.94149539e-02, 0., 0.,
          1.88701510e-01, 1.78721193e-02, 6.58622012e-02, 8.59082565e-02,
          3.57308894e-01, 2.00282112e-01, 2.85492558e-02, 0.,
          1.88701510e-01, 2.60919034e-01, 5.17361537e-02, 0., 0.,
          3.57308894e-01, 9.08013731e-02, 1.29433004e-02, 0.,
          2.29845718e-01 ]
      - [ 0., 7.71055669e-02, 2.68247604e-01, 2.68247604e-01,
          2.22814143e-01, 9.02995765e-02, 1.28717711e-02, 0., 0., 0.,
          2.26039048e-02, 9.09542739e-02, 1.62352070e-01, 2.68247604e-01,
          2.06740558e-01, 2.94698775e-02, 0., 0., 2.07092240e-01,
          9.05572399e-02, 8.84685740e-02, 2.68247604e-01, 2.68247604e-01,
          1.35449365e-01, 1.93076581e-02, 1.21800795e-01, 2.34529361e-01,
          1.77092329e-01, 1.01841383e-01, 2.24743441e-01, 2.68247604e-01,
          2.68247604e-01, 2.68247604e-01, 4.42048199e-02, 5.52204996e-02,
          1.85155377e-01 ]
      - [ 1.04241505e-01, 5.03356755e-02, 9.05038714e-02, 1.06766738e-01,
          3.02129805e-01, 0., 7.57392272e-02, 8.82920697e-02,
          1.26947597e-01, 1.85282320e-01, 5.77886254e-02, 0., 0.,
          3.02129805e-01, 0., 1.13608845e-01, 5.46817929e-02,
          1.60671443e-01, 3.02129805e-01, 2.09800929e-01, 3.68068963e-02,
          4.37216237e-02, 3.02129805e-01, 0., 1.19773336e-01,
          1.19725876e-01, 3.02129805e-01, 3.02129805e-01, 2.74844140e-01,
          5.70842288e-02, 0., 1.64962411e-01, 0., 1.43982366e-01,
          1.15242809e-01, 3.02129805e-01 ]
      - [ 4.88225482e-02, 1.56728864e-01, 3.01189601e-01, 1.07685305e-01,
          3.27248842e-01, 0., 4.30953801e-02, 1.43651264e-02,
          1.19155971e-02, 2.24649962e-02, 1.32828383e-02, 1.69138703e-02,
          0., 3.27248842e-01, 0., 7.54858702e-02, 2.51619574e-02,
          1.78733971e-02, 2.08204046e-01, 2.22887248e-01, 3.11940819e-01,
          7.17901960e-02, 3.27248842e-01, 5.35492226e-02, 6.57192320e-02,
          9.80999395e-02, 1.82029426e-01, 2.15564683e-01, 3.76093760e-02,
          2.10895594e-02, 0., 3.27248842e-01, 2.14196846e-01,
          2.16579512e-01, 6.20156005e-02, 1.97198287e-01 ]
      - [ 7.78122917e-02, 1.67305112e-01, 1.32060692e-01, 1.31965056e-01,
          3.24914545e-01, 1.72785707e-02, 2.53738854e-02, 7.63696944e-03,
          0., 0., 7.26496615e-03, 2.17949003e-02, 0., 3.24914545e-01,
          2.15783760e-01, 3.07589378e-02, 0., 0., 3.24914545e-01,
          9.22598913e-02, 2.63274927e-02, 6.27691001e-02, 3.24914545e-01,
          0., 0., 0., 3.24914545e-01, 3.24914545e-01, 0., 0., 0.,
          3.24914545e-01, 1.43855825e-01, 2.05059554e-02, 0.,
          3.24914545e-01 ]
      - [ 0., 4.64343838e-02, 1.53372645e-01, 9.87017900e-02,
          3.33025515e-01, 8.11105072e-02, 1.15619134e-02, 0., 0., 0., 0.,
          0., 0., 3.33025515e-01, 2.00627208e-01, 2.85984483e-02, 0., 0.,
          3.33025515e-01, 5.22723002e-03, 2.50613540e-02, 6.58011883e-02,
          3.33025515e-01, 5.40736690e-02, 7.70794135e-03, 0.,
          3.33025515e-01, 3.33025515e-01, 0., 0., 0., 3.33025515e-01,
          1.33751467e-01, 1.90656316e-02, 0., 3.33025515e-01 ]
      - [ 4.83039878e-02, 1.54636249e-01, 2.40909427e-01, 1.28204048e-01,
          3.79204273e-01, 2.35273130e-02, 3.35370586e-03, 0., 0., 0.,
          3.10265436e-03, 9.30796377e-03, 0., 3.79204273e-01,
          2.93821275e-01, 4.18828130e-02, 0., 0., 1.87737450e-01,
          1.77808106e-02, 6.55257106e-02, 8.54693577e-02, 3.79204273e-01,
          0., 0., 0., 1.87737450e-01, 2.34529525e-01, 0., 0., 0.,
          3.79204273e-01, 1.95880845e-01, 2.79218722e-02, 0.,
          2.34529525e-01 ]
      - [ 0., 9.19831321e-02, 2.93652177e-01, 1.24190286e-01,
          3.12158465e-01, 1.49161205e-01, 2.12622136e-02, 0., 0., 0., 0.,
          4.05716375e-02, 2.84622371e-01, 3.12158465e-01, 3.12158465e-01,
          4.86797690e-02, 0., 0., 1.81859821e-01, 1.72241367e-02,
          6.34742603e-02, 8.27935189e-02, 3.12158465e-01, 9.94407982e-02,
          1.41748078e-02, 0., 1.81859821e-01, 2.51458973e-01,
          4.98603806e-02, 2.70477571e-02, 1.89748213e-01, 3.12158465e-01,
          2.27669358e-01, 3.24531756e-02, 0., 2.21512303e-01 ]
      - [ 0., 8.25844556e-02, 2.66564071e-01, 1.31962746e-01,
          3.08695287e-01, 2.18503803e-01, 3.11466642e-02, 0., 0.,
          5.14554558e-03, 0., 1.27151432e-02, 8.92005861e-02,
          3.08695287e-01, 2.22026139e-01, 3.16487625e-02, 0.,
          5.14554558e-03, 3.08695287e-01, 1.54642034e-02, 5.69885671e-02,
          7.43338168e-02, 3.08695287e-01, 1.45669177e-01, 2.07644422e-02,
          1.09657064e-01, 3.08695287e-01, 2.34853178e-01, 6.83859736e-02,
          7.93374851e-02, 5.94670475e-02, 3.08695287e-01, 1.48017421e-01,
          2.10991725e-02, 1.11424766e-01, 2.74889439e-01 ]
      - [ 0., 4.32892032e-02, 1.75700203e-01, 3.21529567e-01,
          3.40868831e-01, 0., 0., 0., 0., 0., 0., 4.21763957e-03,
          2.95880176e-02, 3.40868831e-01, 0., 0., 0., 0., 2.72083372e-01,
          1.18425407e-01, 3.15772891e-02, 1.71015412e-01, 3.40868831e-01,
          0., 0., 0., 2.02397212e-01, 3.40868831e-01, 5.26021533e-02,
          2.81175901e-03, 1.97253413e-02, 3.40868831e-01, 0., 0., 0.,
          3.40868831e-01 ]
      - [ 0., 5.76547235e-02, 2.30128691e-01, 2.89550930e-01,
          2.89550930e-01, 1.48555353e-01, 2.11758520e-02, 0., 0., 0., 0.,
          4.56672758e-02, 2.89550930e-01, 2.89550930e-01, 2.89550930e-01,
          4.84820418e-02, 0., 0., 1.81121156e-01, 2.99331034e-03,
          3.93846333e-02, 2.13298172e-01, 2.89550930e-01, 9.90368947e-02,
          1.41172344e-02, 0., 1.81121156e-01, 2.20612571e-01,
          1.40507268e-02, 7.25970268e-02, 2.13579848e-01, 2.89550930e-01,
          2.26744622e-01, 6.59961030e-02, 1.12249134e-02, 2.20612571e-01 ]
      - [ 5.45637421e-02, 8.87228400e-02, 1.27786055e-01, 2.86505640e-01,
          3.12987417e-01, 0., 1.05894543e-02, 3.52981780e-03,
          1.86827369e-02, 0., 2.30470323e-03, 3.39451693e-02,
          1.89631104e-01, 3.12987417e-01, 0., 0., 0., 0., 3.12987417e-01,
          4.30309363e-02, 2.82083936e-02, 1.49385855e-01, 2.82464415e-01,
          0., 0., 1.95487320e-01, 3.12987417e-01, 3.12987417e-01, 0.,
          1.80207081e-02, 1.26420721e-01, 3.12987417e-01, 0.,
          1.39039978e-02, 6.94599003e-02, 3.12987417e-01 ]
      - [ 4.58530635e-02, 1.09777078e-01, 1.52489513e-01, 3.44934046e-01,
          3.44934046e-01, 2.23335456e-02, 3.18354019e-03, 0., 0., 0.,
          2.94522708e-03, 4.33792248e-02, 2.42333442e-01, 3.44934046e-01,
          0., 0., 0., 0., 2.07055986e-01, 2.94522708e-03, 3.60480808e-02,
          1.90903217e-01, 3.44934046e-01, 0., 0., 1.33965984e-01,
          2.87517548e-01, 2.12317348e-01, 0., 2.30290275e-02,
          1.61555618e-01, 3.44934046e-01, 0., 0., 1.82226952e-02,
          2.23262116e-01 ]
      - [ 0., 4.33649831e-02, 1.44947112e-01, 1.04192346e-01,
          3.11650217e-01, 3.95197757e-02, 5.63335419e-03, 0., 0.,
          3.50429378e-02, 3.05019543e-02, 3.47768068e-02, 0.,
          3.11650217e-01, 3.11650217e-01, 4.46901768e-02, 0.,
          2.36855764e-02, 3.11650217e-01, 2.51860823e-02, 1.09254513e-02,
          2.60480810e-02, 3.08862567e-01, 9.87994205e-03, 1.40833843e-03,
          0., 3.11650217e-01, 3.11650217e-01, 3.06093484e-01,
          5.21652214e-02, 0., 2.75914431e-01, 7.83789381e-02,
          1.11725423e-02, 0., 3.11650217e-01 ]
      - [ 1.15741424e-01, 2.18162134e-01, 9.42773595e-02, 6.64602295e-02,
          1.95337441e-02, 2.65484482e-01, 1.13529526e-01, 2.52286587e-02,
          1.68890227e-03, 2.10229069e-01, 2.69235343e-01, 6.64876252e-02,
          0., 0., 2.69235343e-01, 2.51441211e-01, 5.60968928e-02,
          4.68372330e-02, 1.60916224e-01, 2.69235343e-01, 1.44941822e-01,
          1.81603864e-01, 9.63315442e-02, 2.69235343e-01, 1.65023506e-01,
          5.13440184e-02, 2.37544701e-02, 2.69235343e-01, 2.69235343e-01,
          1.27609760e-01, 0., 1.27420491e-02, 2.69235343e-01,
          2.69235343e-01, 7.28764385e-02, 1.36892842e-02 ]
      - [ 1.15741424e-01, 2.18162134e-01, 9.42773595e-02, 6.64602295e-02,
          1.95337441e-02, 2.65484482e-01, 1.13529526e-01, 2.52286587e-02,
          1.68890227e-03, 2.10229069e-01, 2.69235343e-01, 6.64876252e-02,
          0., 0., 2.69235343e-01, 2.51441211e-01, 5.60968928e-02,
          4.68372330e-02, 1.60916224e-01, 2.69235343e-01, 1.44941822e-01,
          1.81603864e-01, 9.63315442e-02, 2.69235343e-01, 1.65023506e-01,
          5.13440184e-02, 2.37544701e-02, 2.69235343e-01, 2.69235343e-01,
          1.27609760e-01, 0., 1.27420491e-02, 2.69235343e-01,
          2.69235343e-01, 7.28764385e-02, 1.36892842e-02 ]
      - [ 9.56759527e-02, 2.02697262e-01, 1.35608509e-01, 3.79527323e-02,
          4.64342311e-02, 2.79976696e-01, 1.59572810e-01, 3.20267826e-02,
          0., 2.67293364e-01, 2.79976696e-01, 0., 0., 0., 2.79976696e-01,
          1.72747955e-01, 7.71410838e-02, 1.03389889e-01, 2.79976696e-01,
          2.79976696e-01, 2.48875208e-02, 8.68926495e-02, 1.68101609e-01,
          2.79976696e-01, 1.43323913e-01, 5.02792597e-02, 2.15175059e-02,
          2.79976696e-01, 2.79976696e-01, 0., 0., 0., 1.37610495e-01,
          2.48761952e-01, 1.06337525e-01, 3.70922163e-02 ]
      - [ 9.43070874e-02, 1.62849635e-01, 1.47275269e-01, 2.85611749e-02,
          6.17228225e-02, 2.95306325e-01, 8.85594115e-02, 0.,
          2.51677968e-02, 2.66713172e-01, 2.67411172e-01, 0., 0.,
          2.24632472e-02, 2.95306325e-01, 1.36613384e-01, 1.68104470e-02,
          1.06103078e-01, 2.95306325e-01, 2.95306325e-01, 1.43859699e-01,
          4.28417660e-02, 1.35826871e-01, 2.95306325e-01, 5.48260584e-02,
          1.98473036e-02, 9.70472470e-02, 2.95306325e-01, 2.95306325e-01,
          4.84804958e-02, 0., 0., 1.34141833e-01, 2.04997197e-01,
          6.19586334e-02, 1.51805103e-01 ]
      - [ 7.23992512e-02, 1.53596297e-01, 1.16217211e-01, 6.08941279e-02,
          1.28831454e-02, 2.72678941e-01, 1.09962493e-01, 1.97256226e-02,
          1.67695247e-03, 2.17018753e-01, 2.62344837e-01, 6.51248693e-02,
          0., 8.30136053e-03, 2.72678941e-01, 1.56089395e-01,
          6.24265000e-02, 9.80951414e-02, 2.29347393e-01, 2.72678941e-01,
          1.02867730e-01, 1.81982756e-01, 1.73446387e-01, 2.72678941e-01,
          2.01520115e-01, 6.85255006e-02, 4.47884426e-02, 2.72678941e-01,
          2.72678941e-01, 1.51911333e-01, 0., 2.35930104e-02,
          2.43982315e-01, 2.55493462e-01, 1.01993039e-01, 4.24591526e-02 ]
      - [ 7.93539733e-02, 1.19420245e-01, 1.15418039e-01, 0.,
          8.40218514e-02, 2.60348052e-01, 9.35692042e-02, 1.58348233e-02,
          3.07359807e-02, 2.07632914e-01, 2.60348052e-01, 6.03900179e-02,
          0., 1.39135092e-01, 2.60348052e-01, 2.46871114e-01,
          1.16754666e-01, 4.20127437e-02, 2.50161529e-01, 2.60348052e-01,
          1.87410980e-01, 0., 2.54151523e-01, 2.60348052e-01,
          1.49252474e-01, 2.62808669e-02, 7.19562098e-02, 2.60348052e-01,
          2.60348052e-01, 1.24933019e-01, 0., 9.57401395e-02,
          1.86336711e-01, 2.60348052e-01, 9.44769830e-02, 5.41986674e-02 ]
      - [ 9.33691412e-02, 1.65101916e-01, 1.06246561e-01, 1.25735532e-02,
          5.92708290e-02, 2.77463049e-01, 9.37806591e-02, 1.20405117e-02,
          1.51192583e-02, 2.77463049e-01, 2.77463049e-01, 5.48030324e-02,
          0., 8.22045580e-02, 2.77463049e-01, 2.17433497e-01,
          1.00518800e-01, 1.49913594e-01, 2.77463049e-01, 2.77463049e-01,
          1.41918525e-01, 5.02941944e-02, 1.23967409e-01, 2.77463049e-01,
          1.05592735e-01, 7.65103009e-03, 1.80258639e-02, 2.68617362e-01,
          2.77463049e-01, 8.66993368e-02, 0., 5.48030399e-02,
          1.95777744e-01, 2.31870338e-01, 8.03477541e-02, 2.87231449e-02 ]
      - [ 9.36533511e-02, 1.98412210e-01, 1.31069362e-01, 2.54183561e-02,
          5.49309514e-02, 2.89463520e-01, 7.88144991e-02, 0., 0.,
          2.32690141e-01, 2.29089737e-01, 0., 0., 0., 2.89463520e-01,
          2.42611021e-01, 5.53041026e-02, 9.50963497e-02, 2.89463520e-01,
          2.89463520e-01, 3.17284726e-02, 3.81275341e-02, 1.20880723e-01,
          2.89463520e-01, 4.87930961e-02, 0., 3.64907808e-03,
          2.89463520e-01, 2.89463520e-01, 0., 0., 0., 1.19381107e-01,
          2.89463520e-01, 1.88436225e-01, 6.91829175e-02 ]
      - [ 9.36533511e-02, 1.98412210e-01, 1.31069362e-01, 2.54183561e-02,
          5.49309514e-02, 2.89463520e-01, 7.88144991e-02, 0., 0.,
          2.32690141e-01, 2.29089737e-01, 0., 0., 0., 2.89463520e-01,
          2.42611021e-01, 5.53041026e-02, 9.50963497e-02, 2.89463520e-01,
          2.89463520e-01, 3.17284726e-02, 3.81275341e-02, 1.20880723e-01,
          2.89463520e-01, 4.87930961e-02, 0., 3.64907808e-03,
          2.89463520e-01, 2.89463520e-01, 0., 0., 0., 1.19381107e-01,
          2.89463520e-01, 1.88436225e-01, 6.91829175e-02 ]
      - [ 9.13252234e-02, 1.43858731e-01, 1.15035817e-01, 0.,
          9.51600596e-02, 2.71386057e-01, 7.55679756e-02, 6.12038001e-03,
          2.79527009e-02, 2.06497714e-01, 2.71386057e-01, 6.03547543e-02,
          0., 1.00640759e-01, 2.71386057e-01, 2.29765847e-01,
          1.08714305e-01, 5.85202947e-02, 2.71386057e-01, 2.71386057e-01,
          1.12008572e-01, 0., 2.28488371e-01, 2.71386057e-01,
          1.39414415e-01, 4.53294851e-02, 8.47846419e-02, 2.71386057e-01,
          2.71386057e-01, 9.05321464e-02, 0., 6.03547655e-02,
          2.15610668e-01, 2.55359560e-01, 8.84872377e-02, 3.13887037e-02 ]
      - [ 9.13252234e-02, 1.43858731e-01, 1.15035817e-01, 0.,
          9.51600596e-02, 2.71386057e-01, 7.55679756e-02, 6.12038001e-03,
          2.79527009e-02, 2.06497714e-01, 2.71386057e-01, 6.03547543e-02,
          0., 1.00640759e-01, 2.71386057e-01, 2.29765847e-01,
          1.08714305e-01, 5.85202947e-02, 2.71386057e-01, 2.71386057e-01,
          1.12008572e-01, 0., 2.28488371e-01, 2.71386057e-01,
          1.39414415e-01, 4.53294851e-02, 8.47846419e-02, 2.71386057e-01,
          2.71386057e-01, 9.05321464e-02, 0., 6.03547655e-02,
          2.15610668e-01, 2.55359560e-01, 8.84872377e-02, 3.13887037e-02 ]
      - [ 1.07328728e-01, 2.12539479e-01, 1.95870057e-01, 3.21691185e-02,
          2.12550908e-01, 2.68009514e-01, 6.67086765e-02, 5.43351471e-03,
          1.79710593e-02, 1.60425007e-01, 1.21244222e-01, 1.85426343e-02,
          0., 1.88225448e-01, 2.68009514e-01, 8.83244127e-02,
          4.82835993e-02, 1.20316438e-01, 2.68009514e-01, 2.68009514e-01,
          7.69875199e-02, 0., 2.68009514e-01, 2.33441502e-01,
          6.28490895e-02, 4.41143326e-02, 2.20293999e-01, 2.68009514e-01,
          2.68009514e-01, 0., 0., 6.60546347e-02, 1.89986616e-01,
          1.16983861e-01, 1.40512556e-01, 2.42678836e-01 ]
      - [ 1.07328728e-01, 2.12539479e-01, 1.95870057e-01, 3.21691185e-02,
          2.12550908e-01, 2.68009514e-01, 6.67086765e-02, 5.43351471e-03,
          1.79710593e-02, 1.60425007e-01, 1.21244222e-01, 1.85426343e-02,
          0., 1.88225448e-01, 2.68009514e-01, 8.83244127e-02,
          4.82835993e-02, 1.20316438e-01, 2.68009514e-01, 2.68009514e-01,
          7.69875199e-02, 0., 2.68009514e-01, 2.33441502e-01,
          6.28490895e-02, 4.41143326e-02, 2.20293999e-01, 2.68009514e-01,
          2.68009514e-01, 0., 0., 6.60546347e-02, 1.89986616e-01,
          1.16983861e-01, 1.40512556e-01, 2.42678836e-01 ]
      - [ 9.03854594e-02, 1.88015625e-01, 1.24201462e-01, 2.40864567e-02,
          2.45903939e-01, 2.33190730e-01, 1.71892434e-01, 4.62173969e-02,
          1.63944683e-03, 2.47932956e-01, 2.54815161e-01, 0., 0.,
          2.46811271e-01, 2.54815161e-01, 2.40076900e-01, 1.06027074e-01,
          9.59012136e-02, 2.54815161e-01, 2.54815161e-01, 3.00659314e-02,
          3.61296870e-02, 2.54815161e-01, 1.65452555e-01, 1.58384323e-01,
          4.49332856e-02, 1.30059570e-02, 2.54815161e-01, 2.54815161e-01,
          0., 0., 8.36419985e-02, 8.40906501e-02, 2.31472686e-01,
          1.00947723e-01, 4.15095389e-02 ]
      - [ 6.28563166e-02, 1.92085221e-01, 2.62293667e-01, 0.,
          3.31423543e-02, 2.88076609e-01, 7.16237128e-02, 3.79499537e-03,
          0., 1.85510620e-01, 2.29394168e-01, 1.25349849e-01, 0., 0.,
          2.88076609e-01, 1.43170044e-01, 5.74008338e-02, 9.85547826e-02,
          2.10213169e-01, 2.88076609e-01, 1.88755393e-01, 0.,
          1.60240203e-01, 2.88076609e-01, 6.76053166e-02, 1.92859974e-02,
          2.05112230e-02, 2.88076609e-01, 2.88076609e-01, 1.23498566e-01,
          0., 0., 2.69368172e-01, 1.99488968e-01, 8.22518319e-02,
          4.26580980e-02 ]
      - [ 8.77795294e-02, 1.23095997e-01, 1.08176656e-01, 2.68504992e-02,
          1.30059719e-01, 2.70302474e-01, 1.62152991e-01, 3.31160724e-02,
          3.47378366e-02, 2.67564207e-01, 2.70302474e-01, 1.24658542e-02,
          0., 6.53732521e-03, 2.70302474e-01, 1.77469984e-01,
          7.97647908e-02, 1.06906362e-01, 2.41929144e-01, 2.70302474e-01,
          1.48668319e-01, 4.02757525e-02, 2.70302474e-01, 2.58286536e-01,
          1.66344970e-01, 6.18343726e-02, 5.15007451e-02, 2.70302474e-01,
          2.70302474e-01, 1.29533648e-01, 0., 2.61492934e-02,
          1.09923936e-01, 2.40730241e-01, 1.05994657e-01, 4.62729670e-02 ]
      - [ 8.60697553e-02, 1.61182597e-01, 1.14963181e-01, 1.36051057e-02,
          9.28401724e-02, 2.51322925e-01, 1.08257979e-01, 2.08381247e-02,
          1.18895136e-02, 2.26684764e-01, 2.51322925e-01, 1.02974743e-01,
          0., 1.64291322e-01, 2.51322925e-01, 2.51322925e-01,
          1.29050076e-01, 9.70295444e-02, 2.51322925e-01, 2.51322925e-01,
          1.54868901e-01, 5.44204004e-02, 2.33961985e-01, 2.51322925e-01,
          1.50931612e-01, 5.44198677e-02, 9.94974300e-02, 2.51322925e-01,
          2.51322925e-01, 1.42773777e-01, 0., 8.80058408e-02,
          1.38440639e-01, 2.51322925e-01, 1.01764388e-01, 9.01388749e-02 ]
      - [ 8.04553181e-02, 1.72573656e-01, 1.21226288e-01, 3.76916230e-02,
          2.52735261e-02, 2.87883192e-01, 6.27592728e-02, 0., 0.,
          2.87883192e-01, 2.87883192e-01, 1.19728716e-02, 0.,
          8.68923683e-03, 2.87883192e-01, 1.03624836e-01, 0.,
          1.23294987e-01, 2.79677123e-01, 2.87883192e-01, 1.49575844e-01,
          8.62948373e-02, 1.66945100e-01, 2.87883192e-01, 6.39171824e-02,
          1.79206673e-02, 9.60130468e-02, 2.87883192e-01, 2.87883192e-01,
          1.24411032e-01, 0., 0., 2.80639261e-01, 4.00037840e-02, 0.,
          7.50363469e-02 ]
      - [ 1.30876005e-01, 2.31084362e-01, 1.02188885e-01, 4.11894880e-02,
          7.60599822e-02, 2.37182707e-01, 9.35780928e-02, 1.99229438e-02,
          1.13673424e-02, 1.56365335e-01, 2.13725522e-01, 7.55145997e-02,
          0., 1.14167452e-01, 2.59146184e-01, 2.16482759e-01,
          1.91153213e-01, 1.29691631e-01, 1.80445477e-01, 2.45131791e-01,
          1.28287032e-01, 2.06260115e-01, 1.23385355e-01, 2.59146184e-01,
          1.20011903e-01, 4.08442989e-02, 6.47761449e-02, 2.59146184e-01,
          2.59146184e-01, 1.28462866e-01, 0., 1.38396025e-01,
          2.59146184e-01, 2.59146184e-01, 1.31664112e-01, 1.06089897e-01 ]
      - [ 9.63785499e-02, 1.84148803e-01, 1.35933906e-01, 2.63617393e-02,
          1.87022716e-01, 2.78134912e-01, 6.27224818e-02, 0.,
          1.22389402e-02, 1.87835231e-01, 1.51082933e-01, 0., 0.,
          1.39778614e-01, 2.78134912e-01, 1.00825779e-01, 9.86775234e-02,
          1.53776050e-01, 2.78134912e-01, 2.78134912e-01, 1.83278751e-02,
          3.95426117e-02, 1.79977536e-01, 2.78134912e-01, 4.83391322e-02,
          1.83189046e-02, 3.00036389e-02, 2.78134912e-01, 2.78134912e-01,
          0., 0., 6.58697784e-02, 2.23481625e-01, 2.28914887e-01,
          2.39319414e-01, 1.76789969e-01 ]
      - [ 9.33691412e-02, 1.65101916e-01, 1.06246561e-01, 1.25735532e-02,
          5.92708290e-02, 2.77463049e-01, 9.37806591e-02, 1.20405117e-02,
          1.51192583e-02, 2.77463049e-01, 2.77463049e-01, 5.48030324e-02,
          0., 8.22045580e-02, 2.77463049e-01, 2.17433497e-01,
          1.00518800e-01, 1.49913594e-01, 2.77463049e-01, 2.77463049e-01,
          1.41918525e-01, 5.02941944e-02, 1.23967409e-01, 2.77463049e-01,
          1.05592735e-01, 7.65103009e-03, 1.80258639e-02, 2.68617362e-01,
          2.77463049e-01, 8.66993368e-02, 0., 5.48030399e-02,
          1.95777744e-01, 2.31870338e-01, 8.03477541e-02, 2.87231449e-02 ]
      - [ 1.16669014e-01, 2.22800732e-01, 9.06868652e-02, 3.53321694e-02,
          3.87575999e-02, 2.82289237e-01, 6.07468151e-02, 0., 0.,
          2.59541631e-01, 2.82289237e-01, 5.31826261e-03, 0.,
          1.57813486e-02, 2.82289237e-01, 1.27987355e-01, 5.21137230e-02,
          1.06955349e-01, 2.48137102e-01, 2.82289237e-01, 1.41494066e-01,
          8.08928758e-02, 1.59083188e-01, 2.82289237e-01, 7.41757825e-02,
          4.75325016e-03, 3.07456329e-02, 2.82289237e-01, 2.82289237e-01,
          4.10341248e-02, 0., 1.25195608e-01, 2.63071567e-01,
          2.09328175e-01, 8.51632804e-02, 7.56813884e-02 ]
      - [ 4.40328307e-02, 1.23714641e-01, 2.75065273e-01, 1.53716607e-02,
          7.59630948e-02, 2.76095629e-01, 7.70899951e-02, 0.,
          2.43588518e-02, 1.88268259e-01, 9.43586081e-02, 1.28338607e-02,
          0., 0., 2.76095629e-01, 1.68561533e-01, 2.83831861e-02,
          1.34164840e-01, 2.48928517e-01, 2.76095629e-01, 2.25496680e-01,
          0., 1.63537472e-01, 2.76095629e-01, 4.01294269e-02,
          1.92093700e-02, 9.39279571e-02, 2.76095629e-01, 2.76095629e-01,
          1.33357644e-01, 0., 0., 1.29830241e-01, 2.76095629e-01,
          1.68565899e-01, 2.30313420e-01 ]
      - [ 9.28968787e-02, 2.07954049e-01, 1.87606797e-01, 5.86436689e-02,
          1.12797283e-02, 2.69505471e-01, 1.20488003e-01, 2.67749783e-02,
          3.88340605e-03, 1.97359160e-01, 2.23114520e-01, 7.05627948e-02,
          0., 8.87294859e-03, 2.69505471e-01, 2.00047702e-01,
          8.16162825e-02, 1.04849465e-01, 1.47863582e-01, 2.69505471e-01,
          1.57352909e-01, 2.11009279e-01, 1.03689954e-01, 2.69505471e-01,
          1.36123285e-01, 1.21588834e-01, 6.13636114e-02, 2.69505471e-01,
          2.69505471e-01, 1.20039009e-01, 0., 2.52175033e-02,
          2.69505471e-01, 2.56155670e-01, 9.91259515e-02, 4.53826711e-02 ]
      - [ 8.80857259e-02, 2.25772470e-01, 2.46021524e-01, 0.,
          5.50481565e-02, 2.85266668e-01, 6.36555180e-02, 1.04738760e-03,
          1.73872511e-03, 1.74193859e-01, 1.77371860e-01, 1.99694838e-02,
          0., 2.28762820e-01, 2.85266668e-01, 9.80435535e-02,
          3.60916890e-02, 9.08334851e-02, 2.50912398e-01, 2.85266668e-01,
          1.53778419e-01, 0., 1.65368021e-01, 2.85266668e-01,
          9.14124548e-02, 2.71177366e-02, 4.64382805e-02, 2.85266668e-01,
          2.85266668e-01, 0., 0., 2.44620889e-02, 2.77988136e-01,
          1.76527560e-01, 9.35178697e-02, 7.65332654e-02 ]
      - [ 7.90922865e-02, 1.95993304e-01, 2.04021260e-01, 2.31673643e-02,
          1.91919021e-02, 2.73060411e-01, 9.49546844e-02, 1.86770763e-02,
          1.56120351e-03, 1.71900570e-01, 1.94947630e-01, 6.33025840e-02,
          0., 7.72837177e-03, 2.75458843e-01, 1.64785728e-01,
          6.48188442e-02, 9.13242772e-02, 1.36101305e-01, 2.75458843e-01,
          2.62969136e-01, 9.26694274e-02, 1.70175508e-01, 2.75458843e-01,
          1.11025952e-01, 3.35340165e-02, 2.19583809e-02, 2.75458843e-01,
          2.75458843e-01, 1.59844741e-01, 0., 2.19645407e-02,
          2.75458843e-01, 2.75458843e-01, 1.30024433e-01, 3.95284742e-02 ]
      - [ 1.11540757e-01, 2.19354764e-01, 1.17482208e-01, 5.91022409e-02,
          1.88247971e-02, 2.79696673e-01, 1.26253784e-01, 2.50223838e-02,
          1.62760599e-03, 1.51974604e-01, 1.32515565e-01, 8.53042379e-02,
          0., 8.05708207e-03, 2.79696673e-01, 2.08452269e-01,
          3.81972827e-02, 8.94625485e-02, 2.48062938e-01, 2.79696673e-01,
          3.62793133e-02, 1.76627681e-01, 1.70903161e-01, 2.79696673e-01,
          1.95590124e-01, 6.65090531e-02, 4.34704870e-02, 2.79696673e-01,
          2.79696673e-01, 4.44073044e-02, 0., 2.28987560e-02,
          2.36802816e-01, 2.79696673e-01, 1.58870727e-01, 4.76120561e-02 ]
      - [ 7.32598901e-02, 1.68192863e-01, 1.66035950e-01, 1.32833734e-01,
          1.44616157e-01, 1.29470840e-01, 1.94805041e-01, 5.87831922e-02,
          1.69161439e-03, 3.47530795e-03, 7.44984597e-02, 2.37383947e-01,
          1.55108482e-01, 1.67262137e-01, 1.65657654e-01, 2.09729180e-01,
          2.37383947e-01, 1.49242342e-01, 6.90364242e-02, 7.77886286e-02,
          2.02390611e-01, 2.37383947e-01, 2.37383947e-01, 1.76963598e-01,
          2.37383947e-01, 1.12152860e-01, 6.57047257e-02, 8.83172229e-02,
          1.47222579e-01, 2.37383947e-01, 2.14226857e-01, 2.37383947e-01,
          2.37383947e-01, 1.97075620e-01, 1.09397307e-01, 1.06779501e-01 ]
      - [ 6.86968789e-02, 1.45275190e-01, 1.46852404e-01, 1.78357348e-01,
          1.83318093e-01, 4.70220931e-02, 1.73770145e-01, 5.56891225e-02,
          5.75343193e-03, 3.92359272e-02, 2.65707020e-02, 1.13724194e-01,
          2.38605142e-01, 1.64879456e-01, 9.49997678e-02, 2.13881508e-01,
          1.88667938e-01, 1.12443306e-01, 1.63557902e-01, 1.01851217e-01,
          1.30183637e-01, 2.39662170e-01, 2.39662170e-01, 1.28712967e-01,
          2.39662170e-01, 1.40740171e-01, 1.50917411e-01, 1.79739401e-01,
          1.15422584e-01, 2.39662170e-01, 2.39662170e-01, 2.39662170e-01,
          2.39662170e-01, 1.72123849e-01, 1.25701487e-01, 2.01508716e-01 ]
      - [ 2.44548377e-02, 1.36756510e-01, 2.33446792e-01, 6.15440197e-02,
          1.18978992e-01, 1.11587577e-01, 1.65262654e-01, 4.97854613e-02,
          0., 2.99527822e-03, 5.44182248e-02, 1.82310730e-01,
          1.33684009e-01, 1.32526860e-01, 8.79682973e-02, 2.33446792e-01,
          2.33446792e-01, 8.30178782e-02, 1.21781051e-01, 1.87140092e-01,
          2.33446792e-01, 6.83832541e-02, 1.58634961e-01, 2.33446792e-01,
          2.31913477e-01, 1.19239651e-01, 1.08608484e-01, 1.86910242e-01,
          2.32709110e-01, 2.33446792e-01, 1.84636608e-01, 2.33446792e-01,
          2.13138863e-01, 2.33446792e-01, 2.07881466e-01, 1.56891957e-01 ]
      - [ 8.90150741e-02, 2.15212867e-01, 2.25766152e-01, 1.17592148e-01,
          1.84527010e-01, 9.80338007e-02, 2.35679492e-01, 8.43422189e-02,
          1.59923278e-03, 3.28551582e-03, 1.03011489e-01, 2.35679492e-01,
          1.50923669e-01, 1.31616324e-01, 1.52167708e-01, 2.35679492e-01,
          2.34222487e-01, 9.33327526e-02, 1.25289351e-01, 8.23063329e-02,
          1.68102160e-01, 1.81516439e-01, 2.35679492e-01, 2.12421138e-02,
          2.35679492e-01, 1.09924085e-01, 1.14136122e-01, 1.50367245e-01,
          1.42216042e-01, 2.35679492e-01, 1.67032674e-01, 2.35679492e-01,
          2.35679492e-01, 1.85498878e-01, 8.56558606e-02, 1.55881479e-01 ]
      - [ 3.68587114e-02, 1.08934827e-01, 1.55034244e-01, 1.40318712e-02,
          1.34882718e-01, 1.10641986e-01, 3.79768610e-02, 7.40179187e-03,
          2.06925231e-03, 3.04131117e-02, 3.74408439e-02, 1.12322532e-01,
          0., 2.31070727e-01, 1.51548892e-01, 2.06184909e-01,
          1.16701797e-01, 6.35514855e-02, 9.52935219e-02, 2.05948561e-01,
          2.55603790e-01, 2.22709164e-01, 2.03937352e-01, 2.56217062e-01,
          1.68043599e-01, 1.94343776e-01, 1.10840373e-01, 1.79856241e-01,
          2.56217062e-01, 2.56217062e-01, 1.83234885e-01, 1.67226955e-01,
          2.56217062e-01, 2.56217062e-01, 2.10358500e-01, 1.54544309e-01 ]
      - [ 3.19957882e-02, 1.09633893e-01, 1.97554678e-01, 1.99720234e-01,
          1.64756477e-01, 3.37041654e-02, 2.36233443e-01, 7.71430284e-02,
          0., 2.02000793e-02, 4.79034893e-02, 1.75455466e-01,
          2.22700939e-01, 2.25099206e-01, 5.05562425e-02, 2.47416377e-01,
          1.86434567e-01, 7.97355324e-02, 6.30028844e-02, 5.39425835e-02,
          1.93002403e-01, 2.47416377e-01, 2.47416377e-01, 1.34816617e-01,
          2.47416377e-01, 1.02190636e-01, 5.86506650e-02, 8.88669491e-02,
          1.31000355e-01, 2.47416377e-01, 2.47416377e-01, 2.47416377e-01,
          2.02224910e-01, 2.16354057e-01, 1.07449174e-01, 9.54288691e-02 ]
      - [ 4.03429531e-02, 1.06302626e-01, 1.56941086e-01, 5.33498526e-02,
          2.06432387e-01, 1.09633707e-01, 8.32347199e-02, 2.25356538e-02,
          6.39411202e-03, 3.86660993e-02, 3.65361609e-02, 1.21015646e-01,
          8.00247863e-02, 2.35294849e-01, 5.81885092e-02, 2.12893128e-01,
          1.22040719e-01, 7.10037351e-02, 2.03650713e-01, 2.33052492e-01,
          1.70944959e-01, 1.24726646e-01, 2.42317036e-01, 2.42317036e-01,
          2.11447701e-01, 1.13550179e-01, 1.28989547e-01, 1.78788945e-01,
          2.42317036e-01, 2.42317036e-01, 2.42317036e-01, 2.42317036e-01,
          2.42317036e-01, 2.42317036e-01, 1.38087496e-01, 1.07674375e-01 ]
      - [ 3.70288752e-02, 1.09437734e-01, 1.55749992e-01, 1.40966512e-02,
          1.60427809e-01, 1.47968963e-01, 2.10922677e-02, 0.,
          2.07880535e-03, 3.05535160e-02, 3.76136936e-02, 1.12841085e-01,
          0., 2.32137486e-01, 1.61452577e-01, 2.02871814e-01,
          1.15381584e-01, 6.38448745e-02, 1.84794486e-01, 2.46644735e-01,
          1.92437589e-01, 1.02406800e-01, 2.66167372e-01, 2.66167372e-01,
          8.78420398e-02, 6.69469759e-02, 1.07931398e-01, 2.26189226e-01,
          2.66167372e-01, 2.66167372e-01, 1.84080824e-01, 1.97245643e-01,
          2.66167372e-01, 2.66167372e-01, 1.38193592e-01, 1.52977318e-01 ]
      - [ 2.11071987e-02, 6.80478513e-02, 1.20553508e-01, 8.03195313e-02,
          1.84387982e-01, 3.68372761e-02, 7.48916864e-02, 2.32135691e-02,
          2.07999605e-03, 5.83503246e-02, 9.45837423e-03, 4.55489047e-02,
          1.20479308e-01, 2.14414641e-01, 1.29334182e-01, 2.12336317e-01,
          1.20094277e-01, 9.16607529e-02, 1.84900329e-01, 2.23281547e-01,
          1.33641213e-01, 1.83891296e-01, 2.34257966e-01, 2.48395607e-01,
          2.48395607e-01, 1.01739064e-01, 9.52388868e-02, 2.48395607e-01,
          2.48395607e-01, 1.84377134e-01, 2.48395607e-01, 2.48395607e-01,
          2.48395607e-01, 2.48395607e-01, 1.46283254e-01, 1.42265618e-01 ]
      - [ 8.92186388e-02, 1.98127612e-01, 1.74691334e-01, 1.25866652e-01,
          1.37031093e-01, 1.22680143e-01, 1.99547157e-01, 6.06865659e-02,
          1.60288997e-03, 3.29302950e-03, 7.26797581e-02, 2.34936044e-01,
          1.46973103e-01, 1.58489317e-01, 1.39463842e-01, 2.34936044e-01,
          2.34936044e-01, 9.12704170e-02, 1.25575870e-01, 7.31652677e-02,
          1.50077045e-01, 2.34936044e-01, 2.26598918e-01, 1.67681918e-01,
          2.34936044e-01, 9.47320238e-02, 1.14397138e-01, 1.50711134e-01,
          1.24963850e-01, 2.34936044e-01, 2.02990755e-01, 2.34936044e-01,
          2.06413239e-01, 2.34936044e-01, 1.30070880e-01, 1.45471305e-01 ]
      - [ 9.04477462e-02, 2.00857073e-01, 1.77097932e-01, 1.27600640e-01,
          1.32608339e-01, 1.24370225e-01, 1.87130526e-01, 5.64673804e-02,
          1.62497198e-03, 3.33839539e-03, 7.53946826e-02, 2.43984133e-01,
          1.48997858e-01, 1.89735621e-01, 6.20719530e-02, 2.43984133e-01,
          2.43984133e-01, 1.10446543e-01, 9.89684165e-02, 7.94253647e-02,
          1.67901009e-01, 2.43984133e-01, 2.27164119e-01, 1.69991970e-01,
          2.43984133e-01, 1.03333727e-01, 8.76356736e-02, 9.09677446e-02,
          1.22759588e-01, 2.43984133e-01, 2.43984133e-01, 2.43984133e-01,
          6.53635189e-02, 2.43984133e-01, 1.76053077e-01, 1.12533875e-01 ]
      - [ 3.06885745e-02, 1.16746463e-01, 2.25569069e-01, 2.00753197e-01,
          1.60014033e-01, 3.04151550e-02, 2.35488087e-01, 8.71862471e-02,
          0., 0., 6.04395196e-02, 2.14353859e-01, 2.31752634e-01,
          1.37273297e-01, 1.10182464e-01, 2.35488087e-01, 1.90812066e-01,
          5.37257046e-02, 6.68404549e-02, 7.89732113e-02, 2.07820982e-01,
          2.35488087e-01, 2.26772130e-01, 1.21660575e-01, 2.35488087e-01,
          1.19391739e-01, 6.34580180e-02, 1.15382999e-01, 1.29547626e-01,
          2.35488087e-01, 2.35488087e-01, 2.35488087e-01, 2.35488087e-01,
          2.18569607e-01, 9.77167338e-02, 1.21304572e-01 ]
      - [ 4.96539883e-02, 1.29799843e-01, 1.92268610e-01, 1.67571247e-01,
          1.62879944e-01, 4.41784486e-02, 1.63261458e-01, 5.23213409e-02,
          5.40549448e-03, 1.11052264e-02, 2.49638483e-02, 1.06846757e-01,
          2.24175557e-01, 1.81701154e-01, 4.53484170e-02, 2.35558853e-01,
          1.85247630e-01, 5.38205467e-02, 1.22158580e-01, 1.00469366e-01,
          1.86221302e-01, 2.35558853e-01, 2.35558853e-01, 1.20929092e-01,
          2.35558853e-01, 1.93670943e-01, 1.62634015e-01, 1.98577285e-01,
          2.06135273e-01, 1.96642593e-01, 2.35558853e-01, 2.35558853e-01,
          1.81393608e-01, 2.35558853e-01, 1.50727153e-01, 1.33309096e-01 ]
      - [ 6.75335452e-02, 1.71073735e-01, 1.89107016e-01, 9.26731601e-02,
          1.30264297e-01, 9.39018279e-02, 1.96922496e-01, 6.11790717e-02,
          0., 3.27938446e-03, 7.75571540e-02, 2.48412177e-01,
          1.10425934e-01, 1.57832578e-01, 5.39072454e-02, 2.63022989e-01,
          2.63022989e-01, 9.08922181e-02, 6.21261932e-02, 1.18942186e-01,
          2.63022989e-01, 2.45909750e-01, 8.51733312e-02, 1.65096954e-01,
          2.63022989e-01, 1.37159526e-01, 5.89823239e-02, 8.33382532e-02,
          1.72819346e-01, 2.63022989e-01, 1.99746773e-01, 1.56588897e-01,
          2.02722728e-01, 2.63022989e-01, 1.89953044e-01, 7.81201497e-02 ]
      - [ 3.66766602e-02, 1.11129351e-01, 1.84119627e-01, 1.65867686e-01,
          1.77611515e-01, 3.64659987e-02, 1.40423939e-01, 4.50752974e-02,
          2.05903198e-03, 0., 2.28214450e-02, 9.20730606e-02,
          1.65622354e-01, 1.87817961e-01, 1.32102355e-01, 2.54413873e-01,
          1.85775071e-01, 6.44139796e-02, 1.48753837e-01, 7.85250291e-02,
          1.11757092e-01, 2.56625861e-01, 2.56625861e-01, 1.45863935e-01,
          2.27404132e-01, 2.12898359e-01, 1.97575077e-01, 1.29874378e-01,
          4.38139066e-02, 1.55620471e-01, 2.56625861e-01, 2.56625861e-01,
          2.56625861e-01, 2.13691339e-01, 1.57741517e-01, 1.84891671e-01 ]
      - [ 1.58678405e-02, 1.36555046e-01, 2.35811159e-01, 9.19952691e-02,
          2.35811159e-01, 1.66471973e-01, 2.35811159e-01, 7.20581487e-02,
          0., 3.73770925e-03, 8.55782479e-02, 2.35811159e-01,
          1.93458334e-01, 2.35811159e-01, 2.15949982e-01, 2.35811159e-01,
          1.61314681e-01, 3.28737982e-02, 9.83751565e-02, 7.77614340e-02,
          1.87676847e-01, 5.07315472e-02, 2.35811159e-01, 1.28879368e-01,
          1.85280666e-01, 7.42108971e-02, 9.89526063e-02, 2.02724382e-01,
          2.15873644e-01, 2.08944350e-01, 1.59295484e-01, 2.35811159e-01,
          2.35811159e-01, 1.58812791e-01, 5.35014048e-02, 1.17637776e-01 ]
      - [ 7.54343420e-02, 1.78436995e-01, 1.95634544e-01, 8.84074122e-02,
          1.64473295e-01, 1.46305248e-01, 1.63341343e-01, 4.74954136e-02,
          4.90691187e-03, 3.34630236e-02, 5.98578826e-02, 1.99827448e-01,
          1.42086521e-01, 2.09580496e-01, 1.33353949e-01, 1.64829478e-01,
          1.52561113e-01, 9.58991721e-02, 1.48071870e-01, 1.61731333e-01,
          1.82786748e-01, 1.64661855e-01, 2.22566560e-01, 1.62106812e-01,
          2.22566560e-01, 1.88938931e-01, 1.55818790e-01, 2.02328533e-01,
          2.22566560e-01, 2.22566560e-01, 1.96241692e-01, 2.22566560e-01,
          2.22566560e-01, 1.51771814e-01, 1.59732491e-01, 1.74628064e-01 ]
      - [ 8.31218585e-02, 1.41884133e-01, 1.09145656e-01, 1.19466685e-01,
          1.63126737e-01, 3.52113545e-02, 9.31903720e-02, 2.93903872e-02,
          1.63467135e-02, 4.08460107e-03, 1.19649228e-02, 5.63639849e-02,
          1.43597767e-01, 1.40663236e-01, 8.35430622e-02, 2.12418362e-01,
          2.48005673e-01, 1.16032623e-01, 1.02261297e-01, 8.62806961e-02,
          2.48005673e-01, 2.48005673e-01, 2.48005673e-01, 2.48005673e-01,
          2.26078123e-01, 1.18887693e-01, 1.31829798e-01, 1.08374685e-01,
          1.20764583e-01, 2.48005673e-01, 2.48005673e-01, 2.48005673e-01,
          2.48005673e-01, 2.48005673e-01, 1.82922021e-01, 1.48116022e-01 ]
      - [ 9.21650976e-02, 1.89929202e-01, 1.31853476e-01, 1.57301947e-01,
          1.81097344e-01, 4.36367579e-02, 1.97215214e-01, 6.36649951e-02,
          0., 1.09690614e-02, 4.10702005e-02, 1.54774010e-01,
          2.21426874e-01, 1.34318814e-01, 8.81602988e-02, 2.33944803e-01,
          2.33944803e-01, 1.30517185e-01, 1.36866912e-01, 1.17547520e-01,
          1.34705707e-01, 1.91642210e-01, 2.33944803e-01, 1.19446337e-01,
          2.33944803e-01, 1.23611383e-01, 1.16698176e-01, 1.60438627e-01,
          1.08475223e-01, 2.33944803e-01, 2.33944803e-01, 2.33944803e-01,
          2.33944803e-01, 2.33944803e-01, 1.46930471e-01, 1.82816267e-01 ]
      - [ 2.15983260e-02, 9.88058001e-02, 1.98621422e-01, 7.07548112e-02,
          1.47632405e-01, 1.32224798e-01, 1.88737392e-01, 5.66297956e-02,
          0., 3.70344035e-02, 7.68593475e-02, 2.45706692e-01,
          1.06132224e-01, 2.09782124e-01, 7.38780349e-02, 2.26019695e-01,
          7.18295798e-02, 3.70344035e-02, 8.87876898e-02, 1.11683086e-01,
          2.62770891e-01, 1.41568407e-01, 1.03197455e-01, 2.62770891e-01,
          2.62770891e-01, 9.28238407e-02, 8.87876898e-02, 1.05554901e-01,
          2.09390849e-01, 2.62770891e-01, 2.42016599e-01, 2.62770891e-01,
          2.62770891e-01, 2.62770891e-01, 8.33564326e-02, 8.47930834e-02 ]
      - [ 6.81147203e-02, 1.29661053e-01, 1.25405252e-01, 6.83315545e-02,
          1.17503278e-01, 1.84300199e-01, 1.05107784e-01, 2.62788907e-02,
          1.33954138e-02, 3.34715145e-03, 7.00330585e-02, 2.18649462e-01,
          5.99830113e-02, 1.86702475e-01, 2.06670448e-01, 1.57271832e-01,
          2.25738078e-01, 1.43738821e-01, 1.63492650e-01, 1.34343222e-01,
          1.65409327e-01, 2.25738078e-01, 2.15803146e-01, 2.25738078e-01,
          1.91886276e-01, 1.11967862e-01, 1.45046696e-01, 1.43638700e-01,
          1.53655753e-01, 2.25738078e-01, 2.25738078e-01, 2.25738078e-01,
          2.25738078e-01, 2.03982830e-01, 2.14204848e-01, 1.98430359e-01 ]
      - [ 7.77319521e-02, 1.52765170e-01, 1.84482634e-01, 8.86797160e-02,
          1.58584505e-01, 1.01738662e-01, 1.97806492e-01, 6.11013845e-02,
          2.03828681e-02, 3.55307409e-03, 7.30969012e-02, 2.36345097e-01,
          1.19641833e-01, 1.71004921e-01, 1.23420544e-01, 2.18555182e-01,
          2.52735257e-01, 1.20709226e-01, 6.91709518e-02, 1.07377216e-01,
          2.52735257e-01, 2.19521895e-01, 9.60879028e-02, 1.78875566e-01,
          2.52735257e-01, 1.46466210e-01, 6.97198808e-02, 9.02934745e-02,
          1.85844988e-01, 2.52735257e-01, 2.16417179e-01, 1.69657454e-01,
          2.52735257e-01, 2.52735257e-01, 1.49014071e-01, 9.62567329e-02 ]
      - [ 3.76946367e-02, 8.73450935e-02, 1.43642485e-01, 9.84097496e-02,
          1.71337426e-01, 1.84591189e-01, 1.46104231e-01, 3.99305522e-02,
          1.11835403e-02, 7.83094987e-02, 7.24751279e-02, 2.33230427e-01,
          1.58572316e-01, 2.10844949e-01, 1.85946494e-01, 1.93924859e-01,
          1.27856866e-01, 1.21583894e-01, 1.46541685e-01, 1.37880236e-01,
          1.60403237e-01, 1.19226217e-01, 2.33230427e-01, 2.33230427e-01,
          1.34597212e-01, 1.67164683e-01, 1.73897892e-01, 2.03776866e-01,
          1.75664321e-01, 2.33230427e-01, 2.19010919e-01, 2.33230427e-01,
          2.33230427e-01, 1.29004166e-01, 1.30412102e-01, 2.24497378e-01 ]
      - [ 2.16038600e-02, 7.62323886e-02, 1.45207033e-01, 8.39424357e-02,
          1.32918790e-01, 4.41564880e-02, 4.20485623e-02, 1.19180875e-02,
          2.49327137e-03, 4.77429405e-02, 1.13376630e-02, 4.55972329e-02,
          8.12669769e-02, 2.12113827e-01, 1.30363092e-01, 1.70664668e-01,
          2.21049920e-01, 1.50060713e-01, 2.01765865e-01, 1.17225252e-01,
          1.87043190e-01, 2.44193003e-01, 2.58452207e-01, 1.76625893e-01,
          1.45150930e-01, 1.11222066e-01, 2.04619095e-01, 2.37962157e-01,
          1.30047232e-01, 2.32596144e-01, 1.82427272e-01, 2.58452207e-01,
          2.58452207e-01, 2.58057654e-01, 1.43828943e-01, 2.52437413e-01 ]
      - [ 2.44809613e-01, 1.92031339e-01, 0., 0., 2.44809613e-01,
          1.69780850e-01, 1.18430503e-01, 5.31598553e-02, 2.08131671e-01,
          1.85734898e-01, 1.64553493e-01, 1.54611826e-01, 2.46072989e-02,
          2.44809613e-01, 3.25110853e-02, 2.44809613e-01, 1.99402079e-01,
          1.69407517e-01, 1.72260538e-01, 8.11984167e-02, 0., 0.,
          1.55827776e-01, 0., 2.44809613e-01, 1.67168841e-01,
          1.70892969e-01, 1.96535334e-01, 1.45270586e-01, 8.58897045e-02,
          0., 2.44809613e-01, 0., 2.44809613e-01, 2.44809613e-01,
          2.27637574e-01 ]
      - [ 2.44090080e-01, 2.53203660e-01, 0., 0., 1.72085926e-01,
          2.53203660e-01, 1.07225537e-01, 1.53267058e-02, 6.85998797e-02,
          2.53203660e-01, 2.53203660e-01, 2.74608415e-02, 5.78471534e-02,
          1.01102427e-01, 2.53203660e-01, 1.64983079e-01, 3.28308120e-02,
          1.39822423e-01, 2.52724290e-01, 2.53203660e-01, 0., 0.,
          6.29996359e-02, 1.11611851e-01, 1.72282591e-01, 7.77913481e-02,
          5.77365831e-02, 2.53203660e-01, 2.53203660e-01, 5.49723348e-03,
          3.85647602e-02, 1.33476732e-02, 2.53203660e-01, 2.53203660e-01,
          1.99319571e-01, 1.66617110e-01 ]
      - [ 2.58333981e-01, 2.58333981e-01, 0., 0., 7.51777068e-02,
          2.58333981e-01, 1.09668359e-01, 1.50129981e-02, 6.03622645e-02,
          2.25473225e-01, 2.58333981e-01, 1.50228903e-01, 0., 0.,
          2.58333981e-01, 2.58333981e-01, 1.82445109e-01, 1.43097073e-01,
          2.10657865e-01, 2.25792021e-01, 0., 0., 7.99592398e-03,
          9.76733565e-02, 1.13910072e-01, 3.33290696e-02, 7.50447065e-02,
          2.08916932e-01, 9.01379660e-02, 1.33005843e-01, 0., 0.,
          2.34767377e-01, 2.58333981e-01, 2.58333981e-01, 2.56028891e-01 ]
      - [ 2.33118609e-01, 2.08669379e-01, 0., 0., 1.74673781e-01,
          2.06983954e-01, 4.52969223e-02, 2.66780015e-02, 1.40463307e-01,
          2.04902336e-01, 2.11336628e-01, 2.24319234e-01, 1.29636362e-01,
          1.25033528e-01, 1.60230711e-01, 1.86797962e-01, 1.40308127e-01,
          1.70626938e-01, 2.33118609e-01, 2.33118609e-01, 3.73056531e-02,
          6.32731393e-02, 2.26285070e-01, 1.94465414e-01, 1.67763963e-01,
          7.60123655e-02, 1.64989009e-01, 1.52745456e-01, 1.44626945e-01,
          7.34267309e-02, 1.00954980e-01, 1.26867980e-01, 2.33118609e-01,
          2.33118609e-01, 2.33118609e-01, 1.48166522e-01 ]
      - [ 2.49109432e-01, 2.49109432e-01, 0., 0., 1.52867362e-01,
          2.49109432e-01, 1.12105154e-01, 2.30711289e-02, 1.11919358e-01,
          2.10457161e-01, 1.86727777e-01, 2.49109432e-01, 4.98381257e-02,
          1.70637876e-01, 1.48271322e-01, 1.88684195e-01, 5.58496118e-02,
          1.65076107e-01, 2.49109432e-01, 2.49109432e-01, 0., 0.,
          2.80366801e-02, 4.41483147e-02, 2.49109432e-01, 9.81121361e-02,
          8.34855363e-02, 2.11093217e-01, 2.02924922e-01, 1.38632640e-01,
          0., 1.70239672e-01, 1.36722699e-01, 2.49109432e-01,
          2.39507630e-01, 1.55011520e-01 ]
      - [ 2.33485296e-01, 2.33485296e-01, 0., 0., 2.33485296e-01,
          2.33485296e-01, 1.20823719e-01, 4.00852337e-02, 1.40396342e-01,
          2.17822641e-01, 2.20611170e-01, 1.02714047e-01, 1.08171381e-01,
          2.33485296e-01, 2.33485296e-01, 1.50292069e-01, 6.00288212e-02,
          1.16417520e-01, 2.20757484e-01, 1.36380792e-01, 0., 0.,
          8.59425068e-02, 9.76408496e-02, 1.65243775e-01, 1.38355806e-01,
          1.91647843e-01, 2.33485296e-01, 1.13498107e-01, 5.33416718e-02,
          4.12344895e-02, 2.33485296e-01, 1.81440666e-01, 2.01759130e-01,
          2.33485296e-01, 2.33485296e-01 ]
      - [ 2.60960162e-01, 2.60960162e-01, 5.74928634e-02, 0.,
          6.29413575e-02, 2.60960162e-01, 1.63594604e-01, 6.50861338e-02,
          5.89709878e-02, 1.39880896e-01, 2.38910004e-01, 1.77413285e-01,
          1.46323487e-01, 3.54574919e-02, 2.60960162e-01, 2.60960162e-01,
          2.55778849e-01, 1.02544017e-01, 1.61463499e-01, 1.73973903e-01,
          0., 0., 1.18785845e-02, 9.92281884e-02, 1.55937850e-01,
          1.15197942e-01, 9.77745429e-02, 1.22938044e-01, 2.01144055e-01,
          7.96898156e-02, 1.99036226e-02, 1.75148994e-02, 2.51918018e-01,
          2.60960162e-01, 2.60960162e-01, 1.80721506e-01 ]
      - [ 2.51142681e-01, 1.74775407e-01, 0., 0., 1.82113349e-01,
          1.51012361e-01, 1.05523415e-01, 2.79991068e-02, 2.51142681e-01,
          2.46948138e-01, 1.27576977e-01, 2.51142681e-01, 7.76216835e-02,
          2.02003106e-01, 1.17938280e-01, 2.25311592e-01, 6.95000216e-02,
          2.34536707e-01, 2.39129126e-01, 1.35564387e-01, 0., 0.,
          3.42889293e-03, 3.98671590e-02, 2.37093017e-01, 1.30047083e-01,
          1.89486250e-01, 1.90987542e-01, 6.92299083e-02, 5.68723828e-02,
          5.17477840e-02, 1.14947394e-01, 1.59468606e-01, 2.51142681e-01,
          2.51142681e-01, 2.51142681e-01 ]
      - [ 2.33212322e-01, 2.33582586e-01, 0., 0., 2.00275168e-01,
          2.35039636e-01, 9.25989300e-02, 1.11643625e-02, 9.29200575e-02,
          2.05812767e-01, 1.84441462e-01, 1.94137514e-01, 3.83509994e-02,
          1.86526790e-01, 2.25029796e-01, 1.06046379e-01, 2.46564820e-02,
          1.32807806e-01, 2.35039636e-01, 2.25312844e-01, 0., 0.,
          2.35039636e-01, 1.86384693e-01, 1.68269977e-01, 1.30556390e-01,
          2.15422481e-01, 2.35039636e-01, 1.53558195e-01, 4.77799922e-02,
          5.75265065e-02, 2.35039636e-01, 1.81431159e-01, 1.16657853e-01,
          1.27931714e-01, 2.35039636e-01 ]
      - [ 2.30956897e-01, 2.30956897e-01, 0., 0., 2.30956897e-01,
          2.30956897e-01, 8.48301128e-02, 1.11041861e-02, 9.24192071e-02,
          2.04703420e-01, 1.72779486e-01, 1.68616548e-01, 9.09617022e-02,
          1.94082946e-01, 2.03156263e-01, 1.45629674e-01, 3.88902389e-02,
          1.32091969e-01, 2.30956897e-01, 2.24098399e-01, 0., 0.,
          2.30914056e-01, 1.72630250e-01, 1.65545553e-01, 1.29852682e-01,
          2.14261338e-01, 2.30956897e-01, 9.61894915e-02, 3.12060677e-02,
          9.24280435e-02, 2.30956897e-01, 1.75288066e-01, 1.79942757e-01,
          1.48792148e-01, 2.30956897e-01 ]
      - [ 2.36777902e-01, 2.08251908e-01, 0., 0., 2.36777902e-01,
          2.36777902e-01, 9.29130986e-02, 1.68222636e-02, 1.37038127e-01,
          2.12699041e-01, 1.80371717e-01, 2.00979203e-01, 3.97025421e-02,
          2.36777902e-01, 2.15013862e-01, 1.17754340e-01, 2.90350467e-02,
          1.43469572e-01, 2.36777902e-01, 1.64229900e-01, 0., 0.,
          2.36777902e-01, 5.44883907e-02, 1.47727996e-01, 1.85761139e-01,
          2.22141072e-01, 2.36777902e-01, 8.83224681e-02, 3.94307859e-02,
          5.95538206e-02, 2.36777902e-01, 1.12942711e-01, 1.16895296e-01,
          2.13979930e-01, 2.36777902e-01 ]
      - [ 2.35445127e-01, 2.35445127e-01, 0., 0., 2.35445127e-01,
          2.35445127e-01, 8.19328725e-02, 1.12976898e-02, 9.40297246e-02,
          2.08270624e-01, 1.86644092e-01, 1.96455941e-01, 3.88089940e-02,
          2.11936712e-01, 2.06696510e-01, 1.04316413e-01, 2.49509346e-02,
          1.34393826e-01, 2.35445127e-01, 2.28003576e-01, 0., 0.,
          2.35445127e-01, 1.55174851e-01, 1.65513366e-01, 1.32115528e-01,
          2.17995107e-01, 2.35445127e-01, 1.05101526e-01, 4.83505875e-02,
          5.82134984e-02, 2.35445127e-01, 1.78342655e-01, 1.17301904e-01,
          1.29459500e-01, 2.35445127e-01 ]
      - [ 2.37878159e-01, 2.37878159e-01, 0., 0., 2.37878159e-01,
          2.37878159e-01, 9.16602835e-02, 3.94452102e-02, 1.57378435e-01,
          2.30769768e-01, 2.23037645e-01, 5.10221310e-02, 6.70657381e-02,
          2.37878159e-01, 1.60951406e-01, 1.17500305e-01, 1.16254002e-01,
          1.56004578e-01, 1.97690353e-01, 1.31588906e-01, 0., 0.,
          2.37878159e-01, 3.95898297e-02, 1.62742510e-01, 2.08671212e-01,
          2.12535143e-01, 2.03815684e-01, 9.11809206e-02, 4.42140251e-02,
          6.46489710e-02, 2.37878159e-01, 1.22605562e-01, 1.47551671e-01,
          2.37878159e-01, 2.37878159e-01 ]
      - [ 2.34703407e-01, 2.34703407e-01, 0., 0., 2.34703407e-01,
          2.34703407e-01, 7.19861686e-02, 3.11408062e-02, 1.04646705e-01,
          1.70332864e-01, 2.15267897e-01, 1.81929350e-01, 8.31160545e-02,
          2.34703407e-01, 1.70238435e-01, 9.34487730e-02, 1.03282921e-01,
          1.23273976e-01, 2.34703407e-01, 1.83827847e-01, 0., 0.,
          2.34703407e-01, 1.44633189e-01, 1.66493222e-01, 1.42291367e-01,
          2.25274295e-01, 2.34703407e-01, 1.53676331e-01, 4.05247211e-02,
          6.12060353e-02, 2.34703407e-01, 1.87510610e-01, 1.03776619e-01,
          1.49651632e-01, 2.34703407e-01 ]
      - [ 2.36949354e-01, 2.33091131e-01, 0., 0., 2.36949354e-01,
          2.36949354e-01, 7.54260197e-02, 3.39812972e-02, 1.50452480e-01,
          1.73463836e-01, 1.92222744e-01, 2.12150261e-01, 0.,
          2.36949354e-01, 1.71901271e-01, 1.11782223e-01, 1.10098645e-01,
          1.49139076e-01, 2.36949354e-01, 1.25797898e-01, 0., 0.,
          2.36949354e-01, 1.37500852e-01, 1.71838000e-01, 1.45326763e-01,
          2.24324420e-01, 2.36949354e-01, 7.95112327e-02, 4.25227955e-02,
          0., 2.36949354e-01, 1.89342156e-01, 1.24536626e-01,
          1.57695517e-01, 2.36949354e-01 ]
      - [ 2.36086801e-01, 2.36086801e-01, 0., 0., 2.36086801e-01,
          2.36086801e-01, 8.31437707e-02, 3.24356854e-02, 1.00655593e-01,
          1.43093750e-01, 1.90184981e-01, 2.09799886e-01, 4.14450243e-02,
          2.36086801e-01, 1.94766402e-01, 1.07700065e-01, 1.08128153e-01,
          1.18625849e-01, 2.36086801e-01, 1.82008535e-01, 0., 0.,
          2.36086801e-01, 1.65714830e-01, 1.76755577e-01, 1.46181896e-01,
          2.03081414e-01, 2.36086801e-01, 7.99790993e-02, 5.16347177e-02,
          6.21675476e-02, 2.36086801e-01, 1.90456271e-01, 1.25269428e-01,
          1.58623427e-01, 2.36086801e-01 ]
      - [ 2.33940601e-01, 2.19550654e-01, 0., 0., 2.23174751e-01,
          1.73814580e-01, 8.66601616e-02, 2.06279103e-02, 2.10297018e-01,
          2.33940601e-01, 2.18886673e-01, 2.33940601e-01, 1.20274104e-01,
          7.08625913e-02, 2.33940601e-01, 1.54694542e-01, 3.89661193e-02,
          1.82257131e-01, 2.33940601e-01, 1.41125664e-01, 0., 0.,
          3.08504608e-03, 5.79436682e-02, 1.97045758e-01, 1.10533275e-01,
          1.94200352e-01, 2.13024810e-01, 1.68154761e-01, 2.85167098e-02,
          1.22212976e-01, 2.61847954e-02, 2.31774628e-01, 2.33940601e-01,
          2.33940601e-01, 2.28618056e-01 ]
      - [ 2.31405690e-01, 2.44126588e-01, 1.78655371e-01, 9.29782093e-02,
          8.18194747e-02, 0., 8.14501867e-02, 1.27068892e-01,
          1.66998953e-01, 1.26623198e-01, 2.07876340e-01, 2.03435898e-01,
          8.13559219e-02, 1.35971799e-01, 2.26286855e-02, 1.91873878e-01,
          1.87145576e-01, 1.14810973e-01, 6.07189648e-02, 1.32327676e-01,
          2.12074503e-01, 2.44126588e-01, 7.28280619e-02, 0.,
          2.44126588e-01, 2.44126588e-01, 1.12629212e-01, 7.01055154e-02,
          8.83641616e-02, 1.77580625e-01, 2.44126588e-01, 2.36733750e-01,
          2.44126588e-01, 2.30725795e-01, 1.70874894e-01, 1.01641402e-01 ]
      - [ 1.65299907e-01, 1.92016482e-01, 1.79716036e-01, 1.23019166e-01,
          3.22949253e-02, 0., 2.18317345e-01, 1.48776859e-01,
          1.28090948e-01, 1.37052044e-01, 1.51613519e-01, 1.37480304e-01,
          1.27846509e-01, 5.25898598e-02, 1.20394595e-01, 6.11634776e-02,
          2.58962244e-01, 2.34859779e-01, 4.13446575e-02, 7.17989355e-02,
          2.26546973e-01, 2.58962244e-01, 0., 0., 2.58962244e-01,
          2.58962244e-01, 1.72130197e-01, 9.78445485e-02, 5.79052381e-02,
          1.21930048e-01, 2.58962244e-01, 7.67275915e-02, 2.58962244e-01,
          2.30713412e-01, 2.07744703e-01, 1.58461645e-01 ]
      - [ 7.77704716e-02, 1.73794150e-01, 2.75527567e-01, 2.60786917e-02,
          7.36459941e-02, 0., 2.06231177e-01, 9.11836997e-02,
          7.50105605e-02, 0., 1.35680720e-01, 2.75527567e-01, 0.,
          1.95882708e-01, 6.67278171e-02, 2.59615242e-01, 1.81433469e-01,
          5.88993765e-02, 5.02685569e-02, 1.70522690e-01, 2.75527567e-01,
          3.91180366e-02, 1.97252557e-01, 0., 2.58512348e-01,
          2.75527567e-01, 1.69348493e-01, 1.36282399e-01, 1.11818835e-01,
          2.40278274e-01, 0., 2.75527567e-01, 1.52773112e-01,
          1.26917601e-01, 1.51551992e-01, 1.87201768e-01 ]
      - [ 8.41841772e-02, 1.80564255e-01, 2.72000074e-01, 2.06616800e-02,
          7.66498074e-02, 0., 2.07386911e-01, 9.05484483e-02,
          7.15993047e-02, 3.48087540e-03, 1.29510358e-01, 2.72000074e-01,
          3.09925228e-02, 8.44399333e-02, 3.75086591e-02, 2.72000074e-01,
          1.59242004e-01, 6.69707358e-03, 3.38492803e-02, 1.55209363e-01,
          2.72000074e-01, 8.26466903e-02, 1.26776069e-01, 0.,
          2.72000074e-01, 2.72000074e-01, 1.35918096e-01, 7.77601302e-02,
          1.36519477e-01, 2.72000074e-01, 1.23970054e-01, 2.72000074e-01,
          1.50034592e-01, 2.72000074e-01, 1.94332868e-01, 1.02333248e-01 ]
      - [ 1.31541207e-01, 1.83427721e-01, 2.34063819e-01, 1.33342847e-01,
          9.23411828e-03, 0., 1.70048043e-01, 1.39065325e-01,
          1.13907591e-01, 1.08920045e-01, 1.10704899e-01, 1.26972869e-01,
          1.38575286e-01, 8.84632543e-02, 9.71850455e-02, 9.04922262e-02,
          2.16081738e-01, 1.78333044e-01, 4.28304449e-03, 6.61043152e-02,
          2.47868314e-01, 2.59853631e-01, 1.51943445e-01, 0.,
          2.59853631e-01, 2.59853631e-01, 1.57608002e-01, 1.33346319e-01,
          2.01073825e-01, 1.33045644e-01, 2.59853631e-01, 2.59853631e-01,
          2.58164555e-01, 1.64836392e-01, 1.41545787e-01, 8.96263495e-02 ]
      - [ 1.07074089e-01, 1.45239010e-01, 2.51061022e-01, 1.24410130e-01,
          2.81931330e-02, 0., 1.15679696e-01, 1.25660002e-01,
          1.23225920e-01, 2.80000828e-02, 9.48173702e-02, 1.78603664e-01,
          1.02193817e-01, 6.43654615e-02, 9.06745493e-02, 2.51061022e-01,
          2.51061022e-01, 1.06904939e-01, 1.70208979e-02, 4.89716344e-02,
          1.93150520e-01, 2.51061022e-01, 1.61657870e-01, 0.,
          2.51061022e-01, 2.51061022e-01, 1.69556424e-01, 1.27072975e-01,
          1.87603772e-01, 1.24132834e-01, 2.51061022e-01, 2.51061022e-01,
          2.40869954e-01, 2.51061022e-01, 1.84430271e-01, 8.62818286e-02 ]
      - [ 2.20594645e-01, 2.31765434e-01, 1.82594866e-01, 7.18933269e-02,
          1.06774643e-01, 0., 1.75766185e-01, 1.48930728e-01,
          1.29969791e-01, 1.53991967e-01, 2.31765434e-01, 1.57864422e-01,
          7.60357082e-02, 7.30364099e-02, 7.38745928e-02, 1.35860190e-01,
          1.82259619e-01, 1.20873906e-01, 9.39723104e-02, 1.37816116e-01,
          2.21790820e-01, 2.02095494e-01, 1.61229476e-01, 0.,
          2.31765434e-01, 2.31765434e-01, 1.49360076e-01, 1.28041625e-01,
          1.26077712e-01, 1.84330866e-01, 2.31765434e-01, 2.31765434e-01,
          2.31765434e-01, 2.31765434e-01, 1.42456174e-01, 1.23309635e-01 ]
      - [ 1.84387535e-01, 2.07004085e-01, 2.02678397e-01, 6.10409640e-02,
          5.96054867e-02, 0., 2.16563553e-01, 1.26172543e-01,
          1.31317437e-01, 2.33804643e-01, 1.84008569e-01, 8.93182382e-02,
          9.20083746e-02, 1.49380416e-01, 1.01276137e-01, 9.57538560e-02,
          1.59184352e-01, 2.17871130e-01, 9.79767814e-02, 9.55081359e-02,
          2.46791646e-01, 1.73356980e-01, 1.86244324e-01, 1.28380984e-01,
          2.46791646e-01, 2.24279761e-01, 1.74212962e-01, 1.25670880e-01,
          8.18406343e-02, 1.42022654e-01, 2.46791646e-01, 2.46791646e-01,
          1.60166293e-01, 2.08485663e-01, 1.31561533e-01, 1.39429525e-01 ]
      - [ 9.03860852e-02, 1.86340481e-01, 2.58357763e-01, 2.01563705e-02,
          3.87663692e-02, 8.78191814e-02, 1.45228907e-01, 6.51325285e-02,
          6.98482469e-02, 1.11897048e-02, 1.28363028e-01, 2.58357763e-01,
          5.38750663e-02, 3.92750166e-02, 5.85461259e-02, 2.58357763e-01,
          2.58357763e-01, 1.05048835e-01, 2.18935441e-02, 1.68924153e-01,
          2.58357763e-01, 1.59903273e-01, 4.54150997e-02, 5.85461222e-02,
          2.10184410e-01, 2.58357763e-01, 1.28286302e-01, 4.46825586e-02,
          1.27014101e-01, 2.58357763e-01, 2.39854887e-01, 1.87002733e-01,
          2.58357763e-01, 2.58357763e-01, 2.01356739e-01, 8.09951052e-02 ]
      - [ 1.98936746e-01, 2.25458518e-01, 2.55161375e-01, 0.,
          3.10402736e-02, 0., 1.70078427e-01, 1.20237067e-01,
          1.61901876e-01, 1.63698375e-01, 1.47718042e-01, 1.91160858e-01,
          0., 9.65824723e-02, 5.85235693e-02, 1.76236972e-01,
          5.59649095e-02, 1.13248408e-01, 1.18013911e-01, 9.97671559e-02,
          2.55161375e-01, 1.09133609e-01, 2.55161375e-01, 0.,
          2.55161375e-01, 1.60266489e-01, 1.52756304e-01, 1.30735919e-01,
          8.60199854e-02, 1.74534038e-01, 2.55161375e-01, 2.55161375e-01,
          2.55161375e-01, 2.55161375e-01, 1.19026855e-01, 1.29471660e-01 ]
      - [ 9.33700800e-02, 2.07293063e-01, 2.53700256e-01, 2.17890497e-02,
          5.00314720e-02, 0., 2.16358602e-01, 2.03199655e-01,
          1.19870327e-01, 6.54485896e-02, 1.93763822e-01, 2.53700256e-01,
          5.82389794e-02, 7.78378546e-02, 8.55120644e-02, 8.23192373e-02,
          2.37278596e-01, 1.40095919e-01, 3.12190019e-02, 1.09788232e-01,
          2.53700256e-01, 8.71561691e-02, 1.33693397e-01, 0.,
          2.53700256e-01, 2.53700256e-01, 1.61713943e-01, 1.79450393e-01,
          2.15413287e-01, 2.11750895e-01, 1.30734265e-01, 2.53700256e-01,
          2.27156192e-01, 1.48342237e-01, 1.21787600e-01, 1.38664216e-01 ]
      - [ 1.52711466e-01, 2.35293940e-01, 2.12720543e-01, 6.92300573e-02,
          1.89104736e-01, 0., 6.28119260e-02, 1.04995772e-01,
          1.02489613e-01, 6.84465393e-02, 1.66458100e-01, 2.25559950e-01,
          4.61533703e-02, 2.62252390e-01, 9.07638445e-02, 2.62252390e-01,
          1.40917361e-01, 1.59029104e-02, 9.09153372e-02, 1.22339807e-01,
          1.36180460e-01, 1.03845090e-01, 2.62252390e-01, 0.,
          2.42342085e-01, 2.62252390e-01, 2.08697200e-01, 1.75434202e-01,
          1.17692292e-01, 1.34355485e-01, 6.92300573e-02, 2.62252390e-01,
          1.36145771e-01, 2.33788669e-01, 1.50979027e-01, 1.77429423e-01 ]
      - [ 6.15468435e-02, 1.29996285e-01, 2.52768368e-01, 1.46309316e-01,
          6.91795126e-02, 0., 1.27377033e-01, 1.17976420e-01,
          9.20757800e-02, 3.49270576e-03, 1.05057403e-01, 2.52768368e-01,
          1.59806505e-01, 5.38037419e-02, 3.76361348e-02, 2.52768368e-01,
          1.54330865e-01, 6.71983371e-03, 5.78060225e-02, 1.22534685e-01,
          2.52768368e-01, 2.52768368e-01, 3.04062907e-02, 0.,
          2.52349466e-01, 2.52768368e-01, 1.87491775e-01, 1.37130901e-01,
          8.72554183e-02, 2.24569559e-01, 2.52768368e-01, 2.41217285e-01,
          1.50544494e-01, 2.52768368e-01, 1.84629291e-01, 1.61787555e-01 ]
      - [ 5.98516315e-02, 1.09811313e-01, 2.48670086e-01, 2.25215241e-01,
          4.04940397e-02, 0., 7.63347298e-02, 1.59604013e-01,
          1.40429184e-01, 4.27344115e-03, 6.83765709e-02, 2.36881196e-01,
          2.22746253e-01, 1.39366940e-01, 3.82220671e-02, 2.48670086e-01,
          1.33880287e-01, 2.44178269e-02, 5.65710254e-02, 1.41305864e-01,
          2.48670086e-01, 1.91515148e-01, 3.08796670e-02, 0.,
          2.48670086e-01, 2.48670086e-01, 1.67921811e-01, 8.71165842e-02,
          2.95949169e-02, 1.43586680e-01, 2.48670086e-01, 2.48670086e-01,
          1.52888224e-01, 2.48670086e-01, 2.48670086e-01, 1.75156474e-01 ]
      - [ 1.53305069e-01, 2.26344913e-01, 1.89465448e-01, 1.08145885e-01,
          1.89839795e-01, 0., 5.40898554e-02, 1.02415167e-01,
          1.02888003e-01, 6.87126070e-02, 1.58814430e-01, 2.05237255e-01,
          7.20972493e-02, 2.55619407e-01, 1.39978513e-01, 2.55619407e-01,
          1.45423725e-01, 4.63880859e-02, 9.52755585e-02, 1.20464332e-01,
          1.29656732e-01, 1.04248755e-01, 2.55619407e-01, 0.,
          2.43284091e-01, 2.55619407e-01, 2.13515282e-01, 2.16343001e-01,
          2.26868942e-01, 8.11305940e-02, 6.94991648e-02, 2.55619407e-01,
          2.09967792e-01, 1.39020279e-01, 1.28854498e-01, 1.49893507e-01 ]
      - [ 1.33930787e-01, 2.12027624e-01, 2.44048506e-01, 3.68269384e-02,
          4.28509079e-02, 0., 2.02740967e-01, 1.28488377e-01,
          9.84323323e-02, 1.76884353e-01, 1.27579540e-01, 1.49145633e-01,
          5.57446629e-02, 1.03833251e-01, 0., 8.54363963e-02,
          1.60864919e-01, 2.08040014e-01, 6.70111552e-02, 9.51694697e-02,
          2.44048506e-01, 2.44048506e-01, 2.22265318e-01, 0.,
          2.44048506e-01, 2.44048506e-01, 1.65444225e-01, 1.02940165e-01,
          1.07255533e-01, 2.41188452e-01, 2.44048506e-01, 2.44048506e-01,
          1.89899147e-01, 2.23091632e-01, 1.29414991e-01, 1.18011355e-01 ]
      - [ 7.14993030e-02, 1.33038491e-01, 2.53200322e-01, 8.46884325e-02,
          7.11013675e-02, 0., 1.77412391e-01, 8.20316300e-02,
          8.52498114e-02, 3.72052775e-03, 1.14433341e-01, 2.53200322e-01,
          1.22233078e-01, 1.92042962e-01, 1.35161027e-01, 2.53200322e-01,
          2.53200322e-01, 1.12805225e-01, 6.58830255e-02, 1.48831442e-01,
          2.53200322e-01, 7.17705712e-02, 1.38314351e-01, 0.,
          2.53200322e-01, 2.53200322e-01, 1.70806900e-01, 8.31137821e-02,
          1.07704647e-01, 2.41355166e-01, 1.07655860e-01, 2.53200322e-01,
          1.30290374e-01, 2.20031425e-01, 2.22998470e-01, 1.57275662e-01 ]
      - [ 2.05064923e-01, 1.42355233e-01, 1.40663043e-01, 5.23173027e-02,
          1.61550701e-01, 0., 1.28765702e-01, 1.20324098e-01,
          1.92721710e-01, 1.26784667e-01, 1.84072822e-01, 1.35263041e-01,
          1.67209938e-01, 1.20778270e-01, 2.31003668e-02, 6.58100545e-02,
          2.43552804e-01, 1.86672196e-01, 3.41438353e-02, 1.16006717e-01,
          2.43552804e-01, 2.31323123e-01, 7.46282786e-02, 0.,
          2.43552804e-01, 2.43552804e-01, 1.44336909e-01, 6.43879026e-02,
          1.04584120e-01, 2.14268982e-01, 2.43552804e-01, 1.70334578e-01,
          2.43552804e-01, 2.08055303e-01, 2.43552804e-01, 1.57666132e-01 ]
      - [ 1.15877450e-01, 1.93723023e-01, 2.75441021e-01, 1.07106641e-01,
          7.77903944e-02, 0., 1.64129421e-01, 1.43790156e-01,
          1.10640913e-01, 7.39829764e-02, 9.38560367e-02, 1.55372903e-01,
          9.37183052e-02, 1.64447293e-01, 4.86096404e-02, 8.97987857e-02,
          3.45629267e-02, 5.02117351e-02, 5.56824021e-02, 6.92230612e-02,
          2.40112767e-01, 2.27601588e-01, 2.75441021e-01, 0.,
          2.26518646e-01, 2.75441021e-01, 2.42632359e-01, 1.38905898e-01,
          2.08398983e-01, 1.02702089e-01, 2.40989923e-01, 2.75441021e-01,
          1.94438502e-01, 1.04465604e-01, 2.20424071e-01, 1.44446924e-01 ]
      - [ 1.56389818e-01, 2.43097112e-01, 2.51711756e-01, 4.95155565e-02,
          1.13583289e-01, 0., 1.21869922e-01, 1.13880388e-01,
          1.07840836e-01, 1.31975874e-01, 2.06383854e-01, 2.12554097e-01,
          7.42733479e-02, 1.47068948e-01, 8.81386101e-02, 2.15654746e-01,
          1.32830441e-01, 8.75738710e-02, 4.07995991e-02, 1.90218151e-01,
          2.51711756e-01, 8.98332223e-02, 1.37799844e-01, 0.,
          2.51711756e-01, 2.51711756e-01, 1.24582000e-01, 1.74568862e-01,
          2.10316926e-01, 1.26368776e-01, 1.34749830e-01, 2.51711756e-01,
          2.34133422e-01, 1.17941096e-01, 2.04116553e-01, 1.75368518e-01 ]
      - [ 1.23941414e-01, 1.81307167e-01, 2.61741847e-01, 6.39170110e-02,
          9.65742618e-02, 0., 1.13427758e-01, 1.12309672e-01,
          1.31194741e-01, 1.50904050e-02, 1.14037961e-01, 2.61741847e-01,
          6.25737533e-02, 1.13571063e-01, 1.17332220e-01, 2.17539802e-01,
          1.87880471e-01, 8.77297521e-02, 9.13308337e-02, 1.95750654e-01,
          2.61741847e-01, 9.58195478e-02, 1.75465524e-01, 0.,
          2.61741847e-01, 2.21471876e-01, 1.14115059e-01, 1.61213040e-01,
          1.00958385e-01, 2.18033016e-01, 1.43729329e-01, 2.61741847e-01,
          2.61741847e-01, 1.92372441e-01, 1.39922440e-01, 1.95439935e-01 ]
      - [ 1.92351252e-01, 2.45223477e-01, 6.61991388e-02, 1.44582957e-01,
          1.10969916e-01, 0., 1.63217932e-01, 1.37122095e-01,
          9.11103562e-02, 1.38671219e-01, 2.38000870e-01, 6.29700646e-02,
          1.62436515e-01, 1.02949746e-01, 1.07470907e-01, 7.03812614e-02,
          2.45223477e-01, 1.62156552e-01, 7.51347020e-02, 1.19517319e-01,
          1.63643628e-01, 2.45223477e-01, 1.34629294e-01, 0.,
          2.45223477e-01, 2.45223477e-01, 1.72180742e-01, 1.80430219e-01,
          1.07897714e-01, 9.06034037e-02, 2.45223477e-01, 2.45223477e-01,
          2.45223477e-01, 1.07034773e-01, 1.61211342e-01, 2.10180119e-01 ]
      - [ 1.48561165e-01, 2.35162750e-01, 2.43879229e-01, 8.01691562e-02,
          2.98945811e-02, 0., 1.72804922e-01, 1.46503642e-01,
          1.10419422e-01, 1.63448840e-01, 1.55106723e-01, 1.66602343e-01,
          5.34460992e-02, 9.30176154e-02, 0., 2.02471241e-01,
          7.44162053e-02, 1.06278904e-01, 1.14360690e-01, 9.06740725e-02,
          2.43879229e-01, 2.25359246e-01, 1.79789037e-01, 0.,
          2.43879229e-01, 2.43879229e-01, 2.14376137e-01, 1.08093828e-01,
          9.90371928e-02, 2.13510975e-01, 2.37827390e-01, 2.43879229e-01,
          1.90805689e-01, 2.43879229e-01, 1.37664437e-01, 1.23515092e-01 ]
      - [ 2.22995073e-01, 2.55267173e-01, 1.43096104e-01, 9.92272347e-02,
          8.47116932e-02, 0., 1.12147987e-01, 1.30900234e-01,
          1.34538323e-01, 1.30116493e-01, 2.27028474e-01, 1.03788659e-01,
          8.68238285e-02, 1.11114211e-01, 1.21504948e-01, 1.35560006e-01,
          1.84260100e-01, 9.90584642e-02, 6.35319501e-02, 8.81218389e-02,
          2.13322774e-01, 2.10857838e-01, 2.55267173e-01, 0.,
          2.55267173e-01, 2.55267173e-01, 1.50319621e-01, 1.12907045e-01,
          9.42287445e-02, 1.66860119e-01, 2.23261252e-01, 2.55267173e-01,
          2.55267173e-01, 2.00359717e-01, 1.23662062e-01, 1.27644047e-01 ]
      - [ 1.27960488e-01, 2.32455671e-01, 2.12299392e-01, 1.42092735e-01,
          5.22085205e-02, 0., 2.14535654e-01, 1.39378861e-01,
          6.75548390e-02, 8.78443792e-02, 1.87442750e-01, 1.92413121e-01,
          9.66068357e-02, 7.84267187e-02, 8.11361894e-02, 2.02364594e-01,
          2.28678972e-01, 1.10177636e-01, 5.32471947e-02, 1.37704909e-01,
          2.32910037e-01, 2.32910037e-01, 1.26851961e-01, 0.,
          2.32910037e-01, 2.32910037e-01, 1.48529932e-01, 1.76703706e-01,
          1.87020153e-01, 1.25497922e-01, 1.86066389e-01, 2.32910037e-01,
          2.15532035e-01, 2.23448858e-01, 1.43121317e-01, 1.31568417e-01 ]
      - [ 1.96846411e-01, 2.37560377e-01, 1.39211327e-01, 1.15318902e-01,
          4.46477719e-02, 0., 2.34026626e-01, 9.87607464e-02,
          7.57043809e-02, 1.15183190e-01, 1.96726844e-01, 1.13295928e-01,
          9.35397446e-02, 8.37915987e-02, 3.63395698e-02, 2.37560377e-01,
          2.07053602e-01, 8.00012574e-02, 9.64333117e-02, 1.44071609e-01,
          2.33539298e-01, 2.37560377e-01, 2.12398246e-01, 0.,
          1.72237575e-01, 2.37560377e-01, 1.89258903e-01, 1.70896873e-01,
          1.80289775e-01, 3.99926752e-02, 1.80159137e-01, 2.37560377e-01,
          1.45358250e-01, 2.37560377e-01, 2.20652804e-01, 1.52962744e-01 ]
      - [ 1.67263180e-01, 2.33798534e-01, 1.70852989e-01, 9.10746828e-02,
          1.12317219e-01, 1.52537823e-02, 1.18042611e-01, 6.22265078e-02,
          7.26242214e-02, 1.09535977e-01, 1.97698966e-01, 1.38789028e-01,
          1.06394716e-01, 1.03584960e-01, 4.13336419e-02, 2.45351106e-01,
          1.86233923e-01, 6.58101365e-02, 1.05415992e-01, 1.66990623e-01,
          2.45351106e-01, 1.93533689e-01, 2.45351106e-01, 0.,
          9.45657417e-02, 2.45351106e-01, 2.15268344e-01, 1.79039508e-01,
          2.05066606e-01, 4.54887860e-02, 2.04918012e-01, 2.45351106e-01,
          1.65334508e-01, 2.25254893e-01, 2.32905820e-01, 1.58640727e-01 ]
      - [ 1.97594300e-01, 2.40152046e-01, 1.75238758e-01, 7.55877271e-02,
          2.81861927e-02, 0., 2.12895855e-01, 1.54786795e-01,
          1.04109280e-01, 1.58280104e-01, 2.26903573e-01, 9.31838900e-02,
          7.99429789e-02, 6.78854436e-02, 7.76708052e-02, 9.79876742e-02,
          2.16010079e-01, 1.50710955e-01, 5.98033406e-02, 1.02096327e-01,
          2.40152046e-01, 2.12480620e-01, 2.12448508e-01, 0.,
          2.40152046e-01, 2.40152046e-01, 1.42337218e-01, 7.57075250e-02,
          1.02742173e-01, 1.90223455e-01, 2.24236250e-01, 2.40152046e-01,
          2.40152046e-01, 2.40152046e-01, 1.44078434e-01, 9.06756818e-02 ]
      - [ 1.96436286e-01, 2.52947390e-01, 6.76050261e-02, 1.47653505e-01,
          1.04970969e-01, 0., 1.63928017e-01, 1.39115453e-01,
          9.30452943e-02, 1.41616210e-01, 2.41117567e-01, 5.84940128e-02,
          1.65886238e-01, 7.17135668e-02, 1.58761293e-01, 3.81416418e-02,
          2.52947390e-01, 1.65600315e-01, 6.79186359e-02, 1.22055538e-01,
          1.79681808e-01, 2.52947390e-01, 3.28638814e-02, 0.,
          2.52947390e-01, 2.52947390e-01, 1.67025670e-01, 1.87924355e-01,
          2.15347141e-01, 5.93851991e-02, 2.52947390e-01, 1.37394547e-01,
          2.52947390e-01, 1.32114083e-01, 1.64635047e-01, 1.44739136e-01 ]
      - [ 1.69629455e-01, 1.67296454e-01, 1.69844419e-01, 1.04717150e-01,
          1.15210466e-01, 1.05029725e-01, 1.15266003e-01, 1.71700716e-01,
          1.83210567e-01, 1.15507163e-01, 1.49434611e-01, 1.80018380e-01,
          1.07401252e-01, 6.50104955e-02, 1.38834536e-01, 6.04631789e-02,
          2.12787002e-01, 1.78389907e-01, 2.97065489e-02, 1.17718928e-01,
          2.51391023e-01, 2.51391023e-01, 1.48530126e-01, 2.62574274e-02,
          1.72262982e-01, 2.51391023e-01, 2.25128263e-01, 9.32423398e-02,
          8.81398693e-02, 2.12173760e-01, 2.51391023e-01, 1.54413298e-01,
          2.51391023e-01, 1.18245319e-01, 2.14834213e-01, 1.92631289e-01 ]
      - [ 1.35146350e-01, 2.54831284e-01, 2.02101454e-01, 1.14133760e-01,
          7.18781799e-02, 0., 2.39137977e-01, 1.66309536e-01,
          5.20111062e-02, 1.53353512e-01, 2.04619333e-01, 1.11038990e-01,
          1.06618784e-01, 1.48135453e-01, 4.72544506e-02, 1.02393098e-01,
          1.84478268e-01, 1.41293496e-01, 1.21555533e-02, 1.05476774e-01,
          2.54831284e-01, 2.54831284e-01, 0., 4.72544506e-02,
          2.47679964e-01, 2.54831284e-01, 1.61168203e-01, 1.39500678e-01,
          2.35184476e-01, 1.70476586e-01, 2.54831284e-01, 1.55322790e-01,
          2.54831284e-01, 1.23167522e-01, 1.18186899e-01, 8.54405314e-02 ]
      - [ 1.53729811e-01, 1.80129617e-01, 2.51962632e-01, 2.24028621e-02,
          1.13302857e-01, 9.76069048e-02, 1.61288515e-01, 1.22667193e-01,
          1.55772313e-01, 5.04205264e-02, 1.70499176e-01, 2.51962632e-01,
          3.36042941e-02, 1.11684904e-01, 1.34132013e-01, 1.68930680e-01,
          1.58351004e-01, 7.75516033e-02, 2.55486015e-02, 1.05678968e-01,
          2.51962632e-01, 8.96114260e-02, 1.37459636e-01, 6.50712699e-02,
          1.89041927e-01, 2.51962632e-01, 2.23092154e-01, 1.58453599e-01,
          2.18195945e-01, 2.07858950e-01, 1.34417146e-01, 2.51962632e-01,
          2.51962632e-01, 9.77375582e-02, 2.10693851e-01, 1.81777701e-01 ]
      - [ 1.71374276e-01, 2.37333283e-01, 1.76146373e-01, 1.00543424e-01,
          1.76494405e-01, 0., 1.83352292e-01, 8.34452063e-02,
          7.46354759e-02, 7.11391941e-02, 1.60677686e-01, 2.33493090e-01,
          9.22897160e-02, 2.50372350e-01, 8.47113207e-02, 2.50372350e-01,
          2.50372350e-01, 1.19038820e-01, 8.88112783e-02, 1.20371722e-01,
          1.32209271e-01, 1.44026071e-01, 2.50372350e-01, 0.,
          2.50372350e-01, 2.50372350e-01, 1.72226831e-01, 1.56478524e-01,
          1.09844059e-01, 1.25396088e-01, 6.46135062e-02, 2.50372350e-01,
          1.27067000e-01, 1.62001595e-01, 1.44133314e-01, 1.71526849e-01 ]
      - [ 1.58278778e-01, 2.35448629e-01, 2.25262672e-01, 7.10964352e-02,
          9.19519588e-02, 0., 2.35448629e-01, 1.67462751e-01,
          7.74748698e-02, 1.33923694e-01, 2.23601997e-01, 1.88909426e-01,
          4.73976210e-02, 1.15976267e-01, 7.30557442e-02, 2.08704665e-01,
          1.24057077e-01, 7.09051117e-02, 8.84863362e-02, 1.30982533e-01,
          2.25613713e-01, 1.99855387e-01, 1.99825183e-01, 0.,
          2.35448629e-01, 2.35448629e-01, 1.37978718e-01, 8.99674371e-02,
          1.24680236e-01, 1.69352934e-01, 2.10912526e-01, 2.35448629e-01,
          2.35448629e-01, 2.35448629e-01, 1.36884600e-01, 8.52878839e-02 ]
      - [ 6.51519448e-02, 1.46500066e-01, 2.63610870e-01, 9.42889750e-02,
          1.04356170e-01, 0., 1.51020005e-01, 1.30280823e-01,
          9.74691138e-02, 0., 1.11211136e-01, 2.63610870e-01,
          1.36247754e-01, 2.01018289e-01, 0., 2.63610870e-01,
          1.51994020e-01, 3.41615733e-03, 5.39524518e-02, 9.95881632e-02,
          2.62439221e-01, 1.11840233e-01, 9.75173414e-02, 0.,
          2.63610870e-01, 2.63610870e-01, 2.02269882e-01, 1.04228109e-01,
          7.92933777e-02, 1.79734573e-01, 2.63610870e-01, 2.63610870e-01,
          0., 2.63610870e-01, 2.02838525e-01, 1.30329013e-01 ]
      - [ 6.74766973e-02, 1.45073861e-01, 2.52047867e-01, 1.14546269e-01,
          1.21046551e-01, 0., 1.39649436e-01, 1.29343107e-01,
          1.00947000e-01, 1.21254986e-02, 1.19648509e-01, 2.52047867e-01,
          9.91456732e-02, 2.27222919e-01, 1.37337819e-01, 2.52047867e-01,
          1.47626460e-01, 4.55129668e-02, 5.19463420e-02, 1.08934775e-01,
          2.52047867e-01, 1.14942946e-01, 1.34899482e-01, 0.,
          2.52047867e-01, 2.52047867e-01, 2.05556050e-01, 1.87194616e-01,
          2.20206961e-01, 2.03735828e-01, 1.10800870e-01, 2.52047867e-01,
          2.06006721e-01, 1.62648931e-01, 1.35174066e-01, 1.47065759e-01 ]
      - [ 6.73544928e-02, 1.45766944e-01, 2.71788388e-01, 5.94817251e-02,
          6.99826330e-02, 1.02893533e-02, 1.02820374e-01, 5.68948165e-02,
          8.12347904e-02, 3.75564257e-03, 1.31755412e-01, 2.71788388e-01,
          5.82316816e-02, 7.24390969e-02, 1.69306889e-01, 2.71788388e-01,
          1.32300362e-01, 7.22571462e-03, 4.56015468e-02, 1.74529940e-01,
          2.71788388e-01, 8.91705081e-02, 1.03532165e-01, 4.11573984e-02,
          2.52900481e-01, 2.71788388e-01, 1.72418997e-01, 4.94182184e-02,
          1.43745154e-01, 2.71788388e-01, 1.33755773e-01, 2.42945135e-01,
          2.71788388e-01, 2.71788388e-01, 1.64289922e-01, 7.59310648e-02 ]
      - [ 9.95442644e-02, 1.50096536e-01, 2.40700409e-01, 5.42535260e-02,
          1.12106055e-02, 0., 2.40700409e-01, 2.01259971e-01,
          1.26457646e-01, 2.28699788e-01, 1.44001618e-01, 2.40700409e-01,
          5.25243208e-02, 1.04731224e-01, 7.71212429e-02, 1.30570263e-01,
          1.36111051e-01, 2.40700409e-01, 3.16033848e-02, 1.19699270e-01,
          2.40700409e-01, 1.57826379e-01, 1.20574817e-01, 0.,
          2.40700409e-01, 2.40700409e-01, 1.38286978e-01, 1.01106800e-01,
          1.77633747e-01, 2.40700409e-01, 1.17906056e-01, 2.40700409e-01,
          2.04866648e-01, 2.30104789e-01, 1.51232809e-01, 9.22195166e-02 ]
      - [ 1.97721541e-01, 1.11423351e-01, 1.19859099e-01, 5.86591847e-02,
          9.57894549e-02, 1.42341917e-02, 1.32490516e-01, 1.12792343e-01,
          1.94747165e-01, 2.21441939e-01, 1.22858979e-01, 1.61927298e-01,
          5.67895621e-02, 1.23201750e-01, 8.33838880e-02, 1.60423696e-01,
          1.99926957e-01, 2.36758858e-01, 4.46588919e-02, 8.55302885e-02,
          2.36758858e-01, 2.36758858e-01, 1.30366102e-01, 0.,
          2.36758858e-01, 2.36758858e-01, 1.50023788e-01, 1.36595860e-01,
          1.03954792e-01, 1.82927474e-01, 1.27480626e-01, 2.36758858e-01,
          2.21502855e-01, 2.36758858e-01, 2.36758858e-01, 2.09356382e-01 ]
      - [ 2.00610191e-01, 1.98375076e-01, 2.42864728e-01, 3.59266251e-02,
          8.37535933e-02, 1.73823498e-02, 1.40066579e-01, 1.16777159e-01,
          1.83130383e-01, 2.42864728e-01, 1.02880180e-01, 1.76830098e-01,
          2.39510797e-02, 8.01315084e-02, 5.47243059e-02, 1.39304996e-01,
          4.38347720e-02, 2.42864728e-01, 1.09216541e-01, 1.20867841e-01,
          2.42864728e-01, 2.00453237e-01, 2.21010357e-01, 2.52584573e-02,
          2.42864728e-01, 2.09850386e-01, 1.78538471e-01, 9.01577547e-02,
          1.15485229e-01, 2.42864728e-01, 9.58042964e-02, 2.42864728e-01,
          2.42864728e-01, 2.42864728e-01, 9.42043737e-02, 8.32025185e-02 ]
      - [ 1.75528914e-01, 1.51899531e-01, 1.52107522e-01, 6.63107783e-02,
          1.16370954e-01, 1.49189522e-02, 8.00203606e-02, 1.67860672e-01,
          1.98080972e-01, 2.23483965e-01, 1.39283836e-01, 1.96499184e-01,
          2.61181872e-02, 2.59632885e-01, 4.69688661e-02, 1.29977405e-01,
          2.16058597e-01, 2.59632885e-01, 4.86680791e-02, 8.30941275e-02,
          1.81315228e-01, 2.59632885e-01, 2.02927977e-01, 0.,
          2.59632885e-01, 2.23039821e-01, 1.04082286e-01, 7.36950040e-02,
          1.20111719e-01, 2.06149578e-01, 0., 2.59632885e-01,
          7.04533011e-02, 2.59632885e-01, 1.72729254e-01, 9.20195505e-02 ]
      - [ 1.41084597e-01, 1.41096190e-01, 1.94115639e-01, 6.26977906e-02,
          3.67937535e-02, 0., 6.66465610e-02, 2.28988618e-01,
          2.17604458e-01, 2.45909691e-01, 1.30267799e-01, 1.85314715e-01,
          1.68654606e-01, 1.20997414e-01, 7.00062588e-02, 5.07794842e-02,
          1.89715102e-01, 2.45909691e-01, 4.07811254e-02, 1.11984365e-01,
          2.45909691e-01, 2.45909691e-01, 0., 0., 2.45909691e-01,
          2.45909691e-01, 1.06020741e-01, 8.21783990e-02, 9.95146707e-02,
          2.03334808e-01, 2.45909691e-01, 2.13226378e-02, 2.45909691e-01,
          2.45909691e-01, 1.78596169e-01, 1.12366237e-01 ]
      - [ 1.78676620e-01, 1.51967585e-01, 1.51236936e-01, 4.88767028e-02,
          1.51200876e-01, 1.48517322e-02, 6.66174144e-02, 1.62756875e-01,
          2.01127082e-01, 2.37647340e-01, 1.64924383e-01, 1.57313719e-01,
          5.92533350e-02, 1.93653688e-01, 4.67572361e-02, 9.66305807e-02,
          1.13774829e-01, 2.37647340e-01, 5.77095971e-02, 1.20068423e-01,
          2.37647340e-01, 1.68980584e-01, 1.43345803e-01, 0.,
          2.30295360e-01, 2.37647340e-01, 1.73534438e-01, 1.17887117e-01,
          1.14163011e-01, 2.30904847e-01, 2.37647340e-01, 2.37647340e-01,
          7.01358616e-02, 2.06436321e-01, 2.31936261e-01, 1.87133521e-01 ]
      - [ 1.89860061e-01, 2.16710970e-01, 1.27951175e-01, 2.18051355e-02,
          1.30795151e-01, 2.46726070e-02, 6.42778277e-02, 8.80682245e-02,
          1.25425369e-01, 2.39265233e-01, 2.39942893e-01, 8.51567835e-02,
          5.82819730e-02, 1.79334611e-01, 1.65604457e-01, 2.17676967e-01,
          1.70552015e-01, 1.62349567e-01, 1.18978634e-01, 2.04740316e-01,
          2.39942893e-01, 8.72205123e-02, 1.01268105e-01, 4.02573608e-02,
          2.39942893e-01, 1.99670091e-01, 1.21237688e-01, 1.99398190e-01,
          1.57956541e-01, 1.33645535e-01, 1.30830780e-01, 2.37632379e-01,
          2.39942893e-01, 2.39942893e-01, 1.42950088e-01, 1.65890113e-01 ]
      - [ 2.30817094e-01, 9.27571803e-02, 5.31536713e-02, 4.06738818e-02,
          1.43019095e-01, 2.61366069e-02, 8.27715993e-02, 9.81871784e-02,
          2.27733999e-01, 2.54959077e-01, 9.50827971e-02, 6.65157139e-02,
          2.70917751e-02, 2.54959077e-01, 4.26461138e-02, 6.66074529e-02,
          1.76088735e-01, 2.54959077e-01, 1.47696435e-01, 1.33693337e-01,
          2.54959077e-01, 9.31227133e-02, 1.76038519e-01, 4.26461138e-02,
          2.54959077e-01, 2.11517930e-01, 1.74563378e-01, 2.50143796e-01,
          1.06064007e-01, 6.82289600e-02, 0., 2.54959077e-01,
          1.70584440e-01, 1.86960444e-01, 1.90259725e-01, 2.54959077e-01 ]
      - [ 2.43837282e-01, 2.43137792e-01, 4.38584611e-02, 1.03270754e-01,
          3.79315317e-02, 1.45322410e-02, 1.55017138e-01, 7.34691173e-02,
          1.49229348e-01, 2.43837282e-01, 1.72881007e-01, 4.56479006e-02,
          6.88244924e-02, 4.42521833e-02, 0., 2.43837282e-01,
          1.87839314e-01, 2.37188816e-01, 1.21283464e-01, 1.60413772e-01,
          2.43837282e-01, 2.43837282e-01, 1.82901099e-01, 0.,
          2.43837282e-01, 1.77133456e-01, 1.17697686e-01, 1.06046483e-01,
